437 500
president -0.089478 -0.057872 0.043192 -0.108178 -0.044347 -0.006177 -0.100599 0.099087 0.078181 0.053421 -0.034983 0.060996 0.03521 -0.085047 -0.160391 -0.18597 -0.127034 0.168136 0.021743 0.045313 0.06729 0.052434 -0.033842 0.040259 0.180638 -0.011896 0.093035 0.085565 0.014082 -0.048283 0.104042 -0.016933 0.098627 0.001134 -0.119672 0.101673 -0.045899 0.03004 0.236456 -0.042485 0.008815 0.008769 -0.114097 -0.090559 -0.015291 -0.091256 0.148454 0.114606 -0.097694 0.070129 -0.01194 0.048314 0.037377 -0.037274 6.63E-4 -0.104531 -0.027282 -0.21708 0.063591 -0.075414 0.102187 -0.045307 -0.07377 -0.011587 0.061147 -0.03998 -0.028768 -0.017338 0.090224 -0.028555 0.12025 0.072795 0.050806 0.010036 -0.053068 -0.124107 -0.047344 -0.048777 0.077848 0.095989 0.009865 -0.053899 -0.044298 -0.141378 -0.051699 0.020272 0.06301 -0.032026 0.042993 -0.0695 0.09236 -0.038446 -0.052949 0.044391 0.094536 0.066601 -0.076236 -0.031748 0.133263 0.100559 -0.030997 -0.106604 -0.047928 0.035426 -0.216175 0.017016 0.118465 -0.015649 -0.070422 0.019654 0.146164 0.089431 0.001965 0.103749 -0.177046 -0.044477 0.04871 -4.24E-4 -0.117574 -0.139903 -0.128536 -0.041101 0.131043 -0.04014 -0.026183 -0.05601 -0.016235 0.048108 0.01659 0.015092 0.006934 0.091127 0.075789 0.044327 0.040745 -0.017932 -0.074254 0.054724 0.063277 -0.252467 -0.149701 -0.050397 0.13307 0.118519 -0.186551 0.018203 -0.050255 0.041977 0.033944 -0.015834 -0.059974 -0.003621 -0.033016 -0.045751 -0.014207 -0.222688 0.064182 0.074124 -0.010023 0.039914 -0.102755 0.085915 0.063273 -0.164667 0.225847 -0.247848 0.057208 0.043981 -0.077526 -0.039646 -0.034059 -0.060391 0.047782 0.176948 0.084226 -0.104053 0.231279 0.010207 0.062989 -0.156881 -0.073811 0.128756 0.097309 0.0617 0.118639 -0.108588 0.065201 0.069924 -0.086285 0.060068 0.178602 0.136661 0.109234 0.055958 -0.177327 -0.239316 0.00383 0.136246 0.047744 0.101995 -0.001572 -0.08749 0.030906 -0.014582 -0.03534 -0.060044 -0.043058 0.067356 -0.076895 0.068234 -0.031038 0.083253 -0.059715 -0.053819 -0.118401 -0.018448 0.008189 -0.046141 -0.001302 0.086578 0.007742 0.120093 0.131532 0.013136 -0.139817 0.021709 -0.049099 -0.139724 -0.191894 0.120746 0.175342 -0.017269 0.16214 -0.133713 0.050405 -0.089345 -0.006491 -0.104331 0.040417 0.035486 -0.144936 -0.025357 0.070014 -0.137779 -0.113367 0.066208 -0.03665 -0.014794 0.100525 0.015318 0.209651 0.095371 0.066845 0.031572 0.118866 0.012043 0.03523 -0.08547 0.055437 -0.006371 0.101291 0.026732 0.007909 -0.230076 -0.080448 0.108987 0.020414 0.002427 0.009502 -0.041403 -0.02502 -0.054267 -0.052388 -0.069337 -0.029655 -0.06505 0.147781 -0.037495 0.066262 -0.008902 -0.099678 0.042042 -0.035639 -0.16374 -0.069592 -0.038223 0.043012 -0.107929 -0.085275 -0.032269 -0.147815 -0.060201 0.107665 0.147513 -0.017593 -0.016152 -0.205857 -0.155654 0.0856 -0.030575 -0.004762 0.021789 -0.134239 0.180093 -0.01873 0.100819 -0.025154 -0.001487 0.283805 -0.044289 0.062075 0.083988 0.001934 0.029314 -0.072138 0.071604 0.068952 -0.034021 0.01024 0.136369 0.034483 0.062347 -0.018384 -0.063064 -0.028045 0.001187 0.011433 -0.133117 -0.051372 -0.087221 -0.163721 0.023233 0.106484 0.066241 -0.16891 0.185628 -0.005332 -0.002275 -0.104549 0.162178 -0.229578 -0.125314 -0.040414 0.098216 -0.064486 0.013691 0.001013 -0.190945 -0.15683 0.028045 -0.072266 -0.003584 -0.170437 -0.013291 -0.024235 -0.027189 -0.134466 0.032155 0.097724 0.077362 -0.057344 -0.005202 -0.005354 -0.084665 0.058294 -0.004918 -0.039095 -0.061165 0.0054 0.071419 0.036768 0.022999 0.037612 -0.113209 0.130837 -0.062954 -0.004767 -0.059389 -0.13193 -0.163248 0.047508 0.099177 0.228457 0.041764 0.032997 0.015223 -0.075142 -0.134889 -0.054259 0.018466 0.013264 0.006306 -0.11832 -0.055944 0.034768 0.005146 0.070493 0.120541 -0.037763 -0.077578 0.012582 -0.039989 -0.05662 0.136959 0.063961 0.083585 -0.117262 -0.038549 0.02908 -0.064201 0.079394 -0.036976 0.127288 -0.076782 0.193221 -0.081299 0.005519 0.028718 0.061037 -0.038217 -0.142599 -0.188966 -0.121179 -0.003072 -0.168301 -0.029519 0.062527 -0.114841 0.023314 0.032701 0.16165 0.193449 -0.044042 0.04324 -0.092986 0.066461 -0.023488 -0.022376 0.12604 0.149965 -0.092991 0.041046 -0.019484 0.07627 -0.058078 0.184873 0.028568 -0.064829 -0.069642 0.147425 0.031778 -0.053998 -0.079996 -0.119279 -0.025168 0.01114 0.013156 -0.032338 0.149172 -0.009022 -0.028165 -0.048557 -0.00806 -0.032888 -0.015791 0.030938 -0.009439 -0.025134 0.001929 0.004134 -0.005875 0.022728 -0.071161 -0.212981 0.107371 -0.123179 5.58E-4 -0.042499 -0.003738 0.061719 -0.014491 0.008483 0.037196 -0.023668 0.04188 0.0173 -0.012246 0.118249 -0.046704 -0.011072 -0.09793 -0.048828 -0.050812 -0.111 0.045224 -0.06671 0.095165 0.182155 0.105728 0.121489
monk 0.015369 -0.023122 -0.094139 -0.051939 0.144583 -0.068576 -0.171465 0.229911 -0.064507 -0.325407 0.077944 0.345828 0.095598 -0.006668 0.019828 -0.038425 0.069507 -0.221266 -0.088608 -0.06591 -0.160847 -0.268371 -0.386811 0.248865 -0.044771 -0.129417 -0.043295 -0.086266 -0.300144 0.05324 0.062634 -0.034369 -0.149418 0.121968 -0.015671 -0.137206 -0.051804 0.138951 -0.102033 -0.095035 0.104414 0.079827 0.030494 -0.181575 0.016281 0.06732 -0.024443 0.129067 0.384988 -0.107271 -0.062581 0.257237 0.010058 -0.002372 0.100822 -0.177335 0.059779 0.014242 0.07238 0.027513 0.27607 0.028276 -0.096304 0.146388 0.0017 0.172108 0.112855 0.17121 0.256143 -0.309634 0.038198 0.215153 -0.018484 -0.050623 -0.08304 -0.358766 0.146665 -7.0E-6 0.413228 -0.005889 0.024439 0.067422 0.112831 -0.047719 -0.008078 -0.203894 0.021156 -0.157607 -0.264747 -0.399502 0.073479 0.133702 -0.33995 -0.018527 -0.046008 -0.267114 -0.231246 0.160662 0.099933 0.470702 -0.168266 0.031534 -0.118407 -0.11049 0.120469 0.161413 -0.039793 0.292402 0.097767 -0.093528 -0.059415 -0.223923 0.15165 -0.146942 0.086134 0.030202 0.053034 -0.017685 0.317997 -0.076874 -0.053457 0.186016 0.150664 0.002071 -0.044612 -0.248254 0.237414 -0.219961 0.245926 -0.235778 -0.266934 0.18833 -0.094824 0.191072 -0.00122 0.079589 0.070464 0.182414 -0.026513 0.321676 -0.043824 -0.09285 0.139605 -0.155092 -0.029788 -0.136211 0.029977 -0.070787 -0.080262 -0.148828 0.064955 0.0207 0.098914 0.002644 -0.1372 0.244418 0.219811 -0.102791 -0.192197 0.095594 0.228172 -0.169291 -0.154496 -0.095854 -0.210043 0.153722 0.082334 0.018109 -0.0572 0.118615 -0.076714 -0.184071 -0.040719 0.02739 0.222237 -0.089263 0.114433 0.205638 0.002277 0.150121 -0.116253 -0.034466 -0.102987 0.018239 0.125152 -0.00394 -0.187094 0.226012 0.20942 0.054373 -0.02597 0.031072 -0.05807 -0.321504 -0.287627 0.265822 -0.082541 0.083926 0.039736 -0.174193 0.088034 0.307256 -0.26883 -0.287426 -0.042168 0.173198 -0.071682 -0.015022 0.019165 0.045081 0.213574 0.102108 -0.037723 0.1871 -0.04216 0.219918 -0.030262 -0.179977 -0.018746 -0.257534 -0.291637 -0.032108 -0.21068 0.157969 0.13702 -0.247305 0.166588 0.003178 0.109242 0.085722 0.221926 0.160903 -0.336585 0.011088 -0.211381 -0.06978 -0.253503 0.045942 0.099765 -0.058273 -0.06183 -0.054532 0.037133 0.146766 0.044614 -0.032336 -0.041739 -0.043368 0.079434 0.032375 0.255045 -0.329784 0.264607 0.059428 0.089062 -0.041396 -0.029108 0.017789 0.232782 -0.250972 -0.019529 -0.112733 -0.031618 0.153104 0.068811 0.006349 -0.025225 -0.248575 0.103047 0.023999 0.080287 0.120858 0.09918 -0.103012 0.069301 -0.01064 0.097114 0.1846 -0.128154 0.056873 -0.047112 0.091491 -0.048342 0.055649 0.218061 0.155441 0.182473 -0.202794 -0.022212 0.170141 -0.083229 -0.009565 -0.18646 -0.175893 0.054851 0.135028 0.025333 -0.045089 0.044154 0.217265 0.1016 0.112792 0.285094 0.034015 0.014549 -0.040576 0.130653 0.020717 -0.041304 -0.172535 0.055678 -0.278893 0.013469 -0.021545 -0.151661 9.23E-4 0.108198 -0.031138 0.320483 0.175293 -0.075562 -0.111413 0.058096 0.030893 -0.045663 0.052398 0.104506 -0.133082 -0.164456 -0.077151 -0.081786 -0.069727 0.162607 0.424557 0.137757 0.3434 0.129308 0.083559 0.142375 -0.039952 0.172838 -0.027854 0.254913 -0.165911 -0.13929 0.100476 0.061453 -0.148132 0.151786 -0.106181 0.02531 -0.284062 0.136156 -0.023318 -0.35151 0.015046 0.020942 -0.129437 0.199874 0.114317 -0.059818 -0.194799 -0.085207 0.193108 0.06048 -0.020042 -0.066749 0.142799 0.138585 0.068759 0.02381 -0.015662 -0.212572 -0.12506 0.130437 -0.031853 -0.048803 0.261607 -0.172231 -0.096984 -0.058726 0.079393 -0.176394 0.028029 0.110653 0.148911 0.274567 -0.096738 0.049332 0.219672 -0.00182 -0.130169 -0.129939 -0.03048 -0.02394 -0.29239 0.071752 0.058112 -0.085761 0.2419 0.031536 -0.337363 0.11538 0.117215 -0.009364 0.316034 0.021643 0.165297 0.096021 -0.02015 0.167252 0.162614 0.114188 0.098011 0.151573 -0.094849 -0.20942 0.005958 -0.099155 0.115285 0.12864 -0.276869 0.351792 -0.003127 0.092444 -0.074738 -0.061482 0.008684 0.105537 -0.00274 -0.234963 -0.208364 -0.032757 -0.287752 -0.062445 -0.128001 0.202901 0.037389 -0.080187 0.100231 -0.121036 -0.092162 0.037047 -0.282461 -0.082033 -0.037301 0.045012 0.035694 -0.13712 -0.158419 0.077446 -0.060135 0.028057 0.01245 0.029216 0.280594 0.097477 -0.113525 0.012659 0.049688 0.212685 0.078421 -0.293223 -0.027585 -0.107289 0.184241 -0.243551 0.029412 0.020446 0.195364 -0.200082 0.352741 -0.090884 0.297069 9.98E-4 -0.022761 0.006228 0.062665 0.166321 -0.050429 0.021322 -0.090457 0.162169 -0.064653 -0.073528 -0.25744 -0.153437 0.035541 0.202058 0.059666 0.045282 -0.028299 0.034132 0.01171 0.26104 0.126206 0.280595 0.207041 0.241964 -0.070878
chance 0.054592 0.07955 0.03565 -0.258671 -0.024028 -0.12302 0.081376 -0.124258 0.013449 0.110071 0.002246 -0.136848 0.049669 -0.032307 0.149302 -0.130928 6.0E-5 0.018297 -0.014266 -0.045284 -5.79E-4 0.028253 -0.152048 0.119486 -0.156843 0.119769 -0.053601 0.105044 0.237156 -0.056703 0.050088 0.287779 -0.037078 0.081579 -0.10344 -0.120593 -0.076639 0.003958 -0.03137 -0.052195 -0.03326 -0.029252 -0.001595 0.045574 -0.049746 -0.063169 -0.115935 0.005951 -0.001946 -0.049663 -0.069337 0.077072 0.048973 0.019147 -0.032867 -0.012478 0.075908 -0.058511 0.067152 -0.054728 0.024616 0.061581 -0.075244 -0.073976 0.028653 -0.061984 -0.060808 0.086325 0.064197 0.069573 0.035641 -0.023428 0.028345 -0.063854 -0.054055 0.027068 0.107049 0.086577 0.029349 0.111359 -0.056213 0.169518 -0.089432 -0.005994 0.161131 -0.027853 0.093359 -0.026785 0.025041 -0.080349 -0.097487 -0.044194 0.077293 -0.092926 -0.18541 0.125797 0.026827 0.046934 0.040567 0.006519 0.048893 -0.042999 -0.060274 0.060349 -0.034706 0.033811 0.041111 -0.082859 -0.145357 -0.009078 -0.050964 0.030763 -0.130068 0.010754 -0.007878 -0.010091 -0.047302 0.058507 0.046366 0.021254 0.040785 0.083979 0.168139 0.084218 -0.15454 0.01002 -0.037144 -0.053666 0.047668 -0.123437 -0.011093 0.030468 -0.042716 -0.09302 0.038643 -0.018613 0.044304 0.084846 0.127927 -0.016924 -0.025369 0.036902 -0.04233 -0.146299 0.025028 0.025265 0.103648 -0.061267 0.060082 0.034742 -0.029512 -0.122218 0.069576 -0.030386 -0.007797 0.034379 -0.116705 0.030463 -0.04186 -0.085475 -0.113459 -0.084987 -0.097712 0.024056 -0.006584 -0.156713 0.172374 -0.001295 -0.047936 -0.171034 -0.151155 0.067661 -0.039267 -0.118908 -0.064041 0.051564 0.125286 0.062037 -0.052417 -0.03275 -2.45E-4 -0.033681 -0.034983 -0.05376 -0.006649 0.076807 -0.061262 0.080946 -0.023761 0.043619 0.073318 2.89E-4 0.019377 0.11519 0.021761 -0.089164 -0.046677 -0.035946 -0.006833 0.05227 -0.036924 0.115798 0.170093 -0.058254 0.07517 0.019869 -0.097327 -0.052102 0.032537 -0.004805 0.067797 0.039793 -0.08154 0.152607 0.022851 -0.16386 0.051192 -0.020871 -0.033823 0.009722 0.041733 0.030154 -0.07471 0.048576 -0.004032 -0.050613 0.149345 -0.162437 0.04641 0.058114 0.005055 -0.110971 0.022837 0.020627 0.034967 -0.089247 0.012577 -0.002118 0.160921 0.082317 -0.082162 -0.02826 0.078431 -0.030879 -0.015691 -0.002232 -0.017705 -0.001029 0.102322 -0.065766 3.15E-4 0.03442 -0.041901 0.175776 0.101395 0.02007 -0.095549 -0.00602 -0.025522 -0.089417 -0.071586 0.09561 -0.00226 -0.06812 0.058038 -0.041974 -0.128109 -0.0596 -0.041584 -0.041968 -0.00606 -0.016206 -0.156591 0.016016 -0.090227 0.070533 0.078452 0.022887 0.003144 -0.144157 -0.100966 0.042028 -0.040372 -0.04577 0.044995 0.021144 -0.032365 0.075416 0.086999 -0.172853 -0.072252 -0.042922 0.012901 -0.161076 0.057448 0.108418 -0.059799 -0.055494 -0.011914 0.08371 -0.041248 -0.024785 -0.015037 -0.20709 0.045498 -0.04453 0.048362 -0.118591 -0.026943 0.090682 0.139768 -0.035331 -0.063012 0.028511 0.03396 -0.031985 -0.090291 -0.040122 0.032393 0.082402 -0.020726 -0.071664 -0.088033 -0.076538 0.254762 -0.074299 0.04547 0.077145 -0.149175 0.102859 -0.046631 -0.080242 0.042448 0.081759 0.078937 0.059507 -0.050879 0.0051 0.090131 0.082868 0.053076 0.038341 0.02686 -0.033483 0.021684 -0.142325 -0.011465 -0.037588 -0.003373 -0.003691 -0.151947 0.00297 -0.023949 0.040539 0.03003 0.047168 -0.131045 0.074549 0.060104 -0.021741 -0.062838 -0.157421 0.068517 -0.017135 -0.060221 -0.034528 0.111482 0.066092 -0.07385 -0.116094 -0.009381 -0.009621 -0.013225 0.054853 -0.026503 -0.034576 0.006543 -0.070892 -0.148967 0.113592 0.050719 -0.045283 0.170708 0.098203 0.052804 -0.041229 -0.006665 -0.001511 -0.061342 -0.119195 0.130705 0.060162 0.007384 0.045829 -0.03879 -0.140277 -0.043052 0.044139 0.181983 0.042514 -0.06745 -0.072082 -0.053838 -0.058632 0.101327 -0.017896 0.025959 -0.0508 0.009269 0.004601 -0.11688 0.077629 0.160398 0.014408 -0.146184 0.038471 -0.015448 -0.066789 0.083976 -0.027347 -0.01687 0.010278 0.029165 0.012919 -0.226654 0.036111 -0.016562 -0.067621 0.086345 0.053761 0.094005 0.051 0.051923 -0.028364 6.79E-4 0.129085 -4.12E-4 -0.002963 -0.111259 -0.066845 -0.040104 -0.085201 0.054288 -0.026783 0.089641 -0.156359 -0.031779 -0.08235 -0.020778 -0.121892 -0.096031 -0.047346 -0.01134 -0.06516 -0.056887 -0.019169 -0.175592 -0.041199 -0.078474 -0.055101 -0.21574 -0.073604 0.167815 -0.011867 0.011118 -0.065829 -0.190706 0.069232 0.025721 0.148044 -0.026028 -0.023421 0.098959 0.030179 0.028779 0.1052 -0.044059 -0.04125 0.041796 0.019226 0.056018 -0.156529 -0.089093 0.152037 -0.01052 0.031462 -0.029269 0.056753 0.054495 -0.076998 0.008536 0.016641 0.015752 0.054848 0.107804 -0.07851 0.003741 -0.235535 -0.092155 -0.055543
party 0.145476 -0.00438 -0.051652 0.060312 -0.040706 -0.048313 -0.094637 0.096535 0.179108 0.041743 -0.006981 0.052292 0.037101 -0.111652 -0.172639 -0.228138 -0.124335 0.107766 -0.044289 -0.076308 -0.07418 -0.092869 -0.191595 0.010112 0.004238 -0.098001 -0.018002 0.015237 -0.024083 -0.088508 0.091783 0.009417 -0.167368 0.009166 -0.058288 0.006165 -0.150447 0.18774 0.083745 -0.165568 0.052336 0.017678 -0.068655 -0.157392 0.06789 -0.049272 -0.122113 -0.139375 0.077901 -0.018895 -0.254752 0.083232 -0.045107 -0.105786 0.04731 -0.241178 -0.04355 -0.018191 0.035227 0.041683 0.093614 0.081088 0.049928 0.020344 0.023764 -0.271724 -0.072948 0.202321 -0.020525 0.069618 0.057193 -0.068901 0.162755 -0.117965 0.038466 0.005816 -0.118977 0.067667 0.07897 0.039141 -0.037532 0.170543 -0.100948 0.109637 0.121732 0.084123 0.107542 -0.145807 -0.065823 -0.230473 0.124329 0.07711 0.040479 0.005058 -0.010749 0.004535 -0.162203 0.003528 0.089937 0.08768 -0.030866 -0.009825 -0.031654 0.075061 -0.088959 -0.085401 0.076039 -0.087024 0.062006 0.068555 -0.143331 0.19015 0.009882 0.245053 0.131212 -0.054079 0.10005 0.107428 0.042618 -0.006412 -0.010279 0.151393 -0.038157 0.02658 0.040857 -0.032005 -0.040029 0.267354 -0.04315 0.011361 -0.025037 0.048299 0.063889 0.139365 0.102045 -0.059046 -0.05199 0.169449 -0.046477 -0.160796 -0.136498 0.064861 0.046738 0.025933 -0.139093 -0.052848 0.062076 -0.003323 0.050926 -0.111487 0.011534 0.008658 0.03445 -0.052455 0.014425 0.002828 -0.076092 0.095896 0.063307 -0.100946 -0.027894 0.108497 -0.072096 -0.092997 0.11335 0.009879 5.43E-4 -0.098687 -0.271021 0.06634 -0.146658 -0.03289 -0.023674 0.18708 0.059148 0.021297 -0.049679 0.14544 0.179737 -0.008769 -0.058708 0.019147 0.083002 -0.124947 -0.052252 -0.063496 -0.004111 0.080954 0.018005 -0.095346 0.2568 0.023908 0.101826 0.047303 -0.059197 -0.059058 -0.091043 -0.036804 0.139081 0.013694 -0.001026 0.068634 0.256333 -0.138914 -0.01698 -0.047459 0.169041 -0.088738 -0.090091 0.011726 0.009298 -0.021611 0.104782 -0.071387 -0.062897 -0.025627 -0.004403 -0.070852 0.15651 0.019023 -0.08475 0.02105 0.120906 0.056545 0.135247 -0.143306 -0.048526 0.034007 -0.073886 0.168724 -0.080149 0.084788 0.040417 -0.080352 -0.019066 0.03584 -0.032184 0.108129 0.013124 -0.151637 -0.024636 0.226007 0.067547 -0.168761 0.074347 -0.182178 0.150405 -0.107173 -0.221708 -0.024283 0.031583 -0.051062 0.051909 -0.032779 0.018172 0.164694 0.013098 0.085035 -0.132818 0.149835 -0.103305 0.029676 0.103601 -0.011267 0.026353 0.048885 0.083845 -0.013051 0.031015 0.055576 0.127459 -0.129385 -0.040889 -0.006168 0.044032 -0.038563 0.088736 0.062385 0.044317 -0.036565 -0.138546 -0.005672 -0.049426 0.094715 -0.108413 0.136916 0.101967 0.049527 0.022089 0.002778 0.043788 -0.283333 -0.044249 -0.097795 -0.040169 -0.159332 -0.069287 0.007357 -0.096097 0.045031 -0.013228 0.028272 -0.090831 0.142445 -0.009818 0.005433 0.09504 0.094142 0.171286 -0.097639 -0.111767 -0.020914 -0.056421 0.118945 0.048947 -0.001578 0.072798 -0.009741 0.11178 0.134658 0.223857 -0.028884 0.005774 -0.050403 0.074906 0.100452 -0.284452 0.090433 -0.056228 -0.013354 -0.072054 -0.072224 -0.06246 0.129155 0.054061 0.136754 -0.062344 -0.092323 -0.122421 0.275346 -0.079414 0.086438 -0.024633 0.108807 0.041514 -0.02028 -0.238352 -0.028769 -0.181781 0.04062 -0.092173 0.099026 -0.148878 0.054391 -0.008144 -0.058881 0.066783 0.030171 0.09937 -0.083384 0.161823 -0.157285 0.040013 -0.159039 0.047855 -0.046243 0.072888 -0.181808 -0.055539 0.049734 -0.112366 -0.118415 -0.071892 -0.108915 0.061104 0.027092 -0.055756 -0.075273 -0.063547 -0.069747 0.055515 -0.074839 0.127797 0.170235 -0.035433 -0.04466 -0.064523 -0.030672 0.189789 0.048546 -9.34E-4 0.029609 -0.201483 0.017386 0.089614 -0.014347 0.167455 0.053502 0.02049 0.080295 0.01369 0.098346 -0.188547 0.057982 0.188644 -0.003214 0.074198 -0.183688 0.085737 -0.146678 0.088886 0.059573 -0.062392 -0.091829 -0.082691 -0.135495 0.058476 -0.070441 -0.023255 -0.046376 0.083366 -0.119264 0.111247 0.095749 -0.098017 -0.103436 0.060272 -0.251075 -0.120489 0.245864 0.136353 0.094131 0.028345 -0.073926 0.067259 -0.026367 0.181484 -0.100885 0.118 0.037079 -0.028038 0.037874 0.052336 0.092195 0.069223 -0.038695 -0.129533 0.09368 0.128456 0.084206 -0.181632 -0.113238 -0.165255 -0.033485 -0.033696 0.066325 -0.053614 0.116241 0.010534 -0.057729 0.112337 -0.028938 0.045429 -0.012509 0.108927 0.033789 -0.15342 0.010258 0.104038 0.087558 -0.114705 0.124219 0.076569 -0.054128 0.133576 -0.048186 0.20506 -0.053184 -0.032732 0.115005 0.101252 0.215541 -0.035971 -0.005876 -0.088751 -0.129938 -0.143538 0.063311 0.035827 0.002955 -0.00563 -0.04044 -0.050853 0.029716 0.136033 -0.073994 0.110711 0.007835 -0.098409 0.058559
fuck 0.297465 0.311061 0.050821 -0.234709 0.032812 0.107832 0.08844 -0.147146 -0.217092 0.005985 -0.013436 0.184734 0.374115 0.04681 -0.118802 -0.00576 -0.215672 0.281663 0.25886 0.182747 -0.063076 -0.097185 -0.322384 -0.210001 0.035159 -0.127846 -0.047685 0.007371 -0.052006 0.027581 -0.018141 -0.028338 0.101029 0.053944 0.142845 0.079016 -0.057808 -0.371617 -0.257992 0.014863 0.204758 -0.002017 -0.052086 -0.005661 -0.012877 0.117509 -0.171179 0.260673 0.066933 -0.057548 -0.126207 0.169144 -0.101804 0.089849 -0.029138 -0.260682 0.064211 -0.055699 0.012991 -0.019909 -0.012906 0.040761 -0.161271 0.045404 0.155445 -0.05826 0.263842 0.141655 -0.047681 -0.034268 0.055689 0.188119 0.224284 0.065394 0.272908 -0.223536 0.179058 -0.209423 0.546771 0.014249 -0.258153 -0.281955 -0.054626 -0.022292 0.29214 -0.119025 0.219775 0.292146 -0.102479 -0.008494 -0.146716 0.140985 -0.091538 -0.226889 -0.194121 -0.241641 -0.023996 -0.211537 0.189121 -0.017072 -0.047995 -0.126543 0.037702 -0.054036 0.05958 0.174079 0.202441 0.088957 -0.098861 -0.244351 -0.125695 0.1437 0.102538 -0.01787 0.032995 0.299065 -0.028927 -0.02706 0.116805 0.175962 0.103713 -0.083895 0.050465 0.092548 0.096082 0.080232 -0.178961 0.181418 0.126072 -0.052747 0.274936 0.198226 -0.197813 0.011573 0.217588 -0.050273 -0.079123 0.021931 0.03011 -0.065577 0.095299 0.123558 0.21947 -0.107156 0.086286 0.013148 0.196395 0.286923 0.086437 -0.175477 0.057545 0.076388 -0.098203 0.024295 -0.153898 -0.06079 0.013709 0.1267 -0.030131 -0.025539 -0.087548 -0.096629 0.2074 -0.04473 0.292054 -0.063078 -0.204443 0.060422 -0.314268 -0.176259 0.088384 -0.207504 -0.052225 0.004094 -0.059811 -0.145488 -0.019148 -8.3E-5 -0.014723 -0.01222 0.011711 0.095807 0.176772 -0.174165 0.037888 0.201102 -0.03308 0.044913 -0.029466 0.20963 -0.054564 -0.149686 -0.001256 -0.259812 -0.05732 0.093021 -0.271994 0.162375 0.22766 0.241507 0.019929 0.282696 0.211395 0.031695 -0.059591 0.153178 -0.061078 -0.078181 0.034347 -0.325508 0.216122 0.107635 0.220831 -0.220907 -0.115714 0.20498 -0.135578 -0.040666 0.065068 -0.121056 -0.006299 0.178696 -0.131236 -0.240322 -0.004554 -0.029142 -0.157526 0.220733 -0.093 -0.058016 -0.084332 -0.051245 0.108879 -0.112561 0.002921 -0.049124 -0.07812 -0.13008 -0.224341 0.264315 0.059768 -0.097496 -0.004812 0.181373 0.121446 -0.079499 0.069955 0.164738 0.248287 0.073236 -0.126677 -0.224401 0.192494 -0.005047 0.06122 0.10828 -0.033392 -0.20793 0.017446 -0.151019 -0.021959 0.095598 0.183034 -0.097758 -0.023684 0.316406 0.108516 0.046924 -0.144043 0.18442 0.355003 0.063642 0.318406 -0.460015 -0.10596 0.029684 0.308726 0.082732 -0.085113 -0.138778 -0.105967 -0.098395 0.166399 0.227088 -0.004021 0.105818 0.433077 -0.137751 0.27091 0.004811 0.19728 0.083326 -0.134226 0.115922 0.081939 -0.028817 -0.139177 0.043624 0.246576 -0.140508 0.196459 -0.027587 -0.08416 0.100586 0.117059 0.099597 0.042073 0.044616 0.063311 -0.016778 0.131457 0.254727 -0.083281 -0.180259 -0.048278 -0.222072 -0.013667 -0.058083 -0.165354 -0.010102 0.093054 0.037388 -0.236016 -0.124426 0.060818 0.196653 -0.030796 0.047336 0.008039 -0.117134 -0.205918 0.119024 -0.021638 0.043931 0.055401 0.024826 0.009433 0.1028 -0.045862 0.045855 0.155856 -0.006603 0.273524 -0.250438 0.062181 -0.154917 0.069136 0.003449 -0.027949 -0.052855 -0.208909 0.003487 -0.129589 -0.096443 -0.087407 -0.237874 -0.100592 -0.245706 -0.037081 0.086754 -0.068833 -0.127923 -0.004749 -0.290841 -0.119637 -0.323295 0.127126 -0.043576 -0.329172 -0.201657 0.171748 -0.006084 -0.303818 0.310396 -0.110319 -0.262611 0.058819 0.072373 -0.395597 -0.015618 0.143902 -0.269947 0.148777 -0.099562 -0.162413 0.182338 0.093916 0.075214 0.147959 0.063309 -0.100646 -0.162347 -0.016536 0.206011 0.130501 -0.130976 -0.181449 -0.24328 -0.096059 0.116189 0.165409 0.007344 -0.071769 -0.202018 0.296366 0.224991 0.247668 0.104071 -0.042817 -0.079698 -0.329085 0.20478 -0.085092 0.131513 -0.037741 0.031301 0.235246 -0.131661 -0.010092 0.234442 0.270575 0.007339 0.056485 -0.193633 0.096516 -0.079922 -0.214211 0.038687 -0.009339 -0.048141 -0.032166 -0.151094 0.10449 0.068601 -0.183268 -0.052163 0.142636 -0.255473 -0.037772 -0.031813 0.055782 -0.50443 0.042391 0.032924 -0.056493 -0.189481 0.422932 -0.035732 0.047669 0.077058 0.04266 -0.285309 0.167542 -0.051968 -0.010076 0.02313 -0.186 0.052943 0.213263 0.060331 0.104945 0.242953 0.028621 0.011323 -0.072383 0.166566 -0.26039 0.12988 -0.022578 -0.153852 0.144588 0.195061 0.201554 0.038796 0.072167 0.023545 -0.080997 -0.172327 -0.097284 0.198309 -0.040406 -0.00794 0.107387 0.060313 0.139994 -0.022133 -0.26523 -0.221371 -0.123288 0.029504 -0.317579 0.109472 -0.133623 -0.100077 0.323691 0.270761 -0.177066 -0.003538 -0.023245 0.214589
psychology 0.253622 0.022955 -0.1739 -0.140692 -0.071104 0.320322 -0.269933 -0.282748 -0.073106 -0.331379 0.004604 -0.071535 0.313036 -0.073266 0.013453 0.177797 0.19495 0.190883 0.176735 0.137081 -0.087332 0.283544 -0.047874 -0.315736 -0.243891 -0.059787 0.134706 -0.22037 -0.27194 -0.187408 -0.148164 0.272321 0.089627 0.024182 -0.09354 0.204803 -0.25219 -0.163062 0.205953 -0.00155 0.045569 0.018962 0.041612 -0.017224 -0.072258 -0.220776 0.404823 0.023241 0.012053 -0.205223 -0.262352 -0.165335 -0.035261 0.129962 0.042411 -0.239373 -0.031531 -0.10452 0.129407 -0.011048 -0.025026 -0.070839 0.014178 0.110859 0.072392 -0.035855 -0.066908 -0.037869 -0.038164 -0.084335 -0.134172 0.236488 0.034751 0.212843 0.057064 -0.261125 0.015482 0.099269 0.106314 0.120624 0.281889 0.111738 0.153163 0.044681 0.368224 -0.042821 0.004182 0.026562 0.213347 0.037144 0.197347 -0.142205 0.026356 0.03561 0.104752 0.104957 -0.013215 -0.111866 0.022407 0.004377 0.182365 0.107364 -0.091835 -0.227204 -0.023342 4.83E-4 -0.170054 -0.046944 0.333237 0.079461 0.142146 0.131538 -0.050066 -0.040739 0.060919 0.099542 -0.167251 -0.071306 -0.073707 -0.101004 -0.073766 0.098055 0.225402 -0.109324 0.089401 -0.165384 0.22293 -0.118422 0.067488 -0.156414 0.050766 0.038244 -0.214919 0.019426 0.316604 0.279879 -0.003394 0.039981 -0.033593 0.067605 0.340034 -0.099802 0.143243 -0.231136 0.02864 -0.024511 -0.241005 -0.140141 -0.161119 -0.029033 0.375632 0.020997 0.08856 -0.039725 -0.22063 0.048157 -0.163811 0.144034 -0.101237 -0.026801 0.011426 -0.028691 0.1583 0.084515 -0.009573 -0.065611 0.09326 0.146101 0.248694 0.014194 -0.066992 0.098377 -0.09381 0.118896 6.19E-4 0.041832 0.131243 0.314342 -0.113228 -0.015088 -0.062356 0.241149 0.213097 -0.203267 0.103745 0.204559 0.084121 0.180006 0.079201 -0.086689 0.120992 0.175491 0.003807 -0.111465 -0.108994 -0.031261 -0.059739 -0.015934 0.101176 -0.178598 -0.06719 0.017574 0.081273 -0.01274 -0.042784 0.162812 -0.286135 0.110908 0.083081 0.020983 0.03981 -0.028916 0.221306 -0.135507 0.10867 0.14588 -0.010166 0.078502 0.08402 -0.008552 -0.017505 -0.205501 -0.013357 0.125717 -0.05589 0.24448 0.145007 -0.060534 -0.211802 -0.112443 -0.154565 -0.022162 0.254681 -0.011191 -0.051597 0.005255 0.113595 0.004079 -0.142824 0.215619 0.241317 0.065261 -0.197672 -0.01473 0.14487 -0.069921 -0.117387 0.007457 0.132779 -0.025023 -0.188147 0.06304 0.198713 -0.006853 0.173574 -0.020849 0.0625 -0.019285 -0.134295 -0.071803 0.117933 -0.048842 -0.025962 0.246968 0.104577 -0.024783 0.037732 0.113561 -0.091414 -0.06293 0.032331 -0.05181 0.011889 0.174557 0.019742 0.010197 0.121797 0.204193 0.207948 -0.362899 0.0881 -0.148829 0.089104 -0.17547 -0.215157 -0.061594 -0.069935 0.038997 -0.231935 -0.285682 -0.160571 -0.090589 -0.189242 0.009272 0.046847 -0.104706 -0.032115 0.085576 0.045971 0.088226 0.048099 0.105534 0.184529 0.030106 -0.017798 6.0E-4 -0.021488 0.124604 -0.025942 -0.172139 0.244029 0.198183 -0.008384 -0.27508 -0.035192 -0.104562 -0.152308 -0.037192 0.083552 0.137301 -0.04219 -0.001189 0.060502 -0.057592 -0.070902 -0.149743 -0.183729 0.044159 -0.029875 -0.190104 -0.074191 0.194488 0.080887 -0.051258 0.070422 -0.230562 -0.151368 0.042673 0.011438 0.163752 -0.003227 0.141628 -0.2057 -0.332236 0.203961 0.056793 0.222861 -0.240465 0.008316 -0.128099 -0.047505 -0.040729 0.020142 -0.002983 -0.203348 0.118717 -0.279047 0.185936 -0.019465 0.007748 0.054567 0.02532 -0.05724 -0.062377 0.12656 0.120916 0.008654 -0.035379 -0.03755 -0.046212 -0.014508 -0.060281 -0.166388 0.050019 0.078037 -0.082935 0.005628 0.090588 -0.157952 -0.209188 -0.08778 0.099793 0.068741 -0.041843 -0.036304 0.131574 -0.037975 -0.148321 -0.100795 0.009128 -0.08379 -0.09589 0.033312 0.001155 0.082201 0.002567 -0.049513 -0.005405 -0.074853 0.056061 -0.12704 0.119364 -0.024106 0.097227 0.035189 -0.002245 0.138515 -0.199314 0.209948 -0.062005 -0.109813 -0.050148 0.103058 -0.06833 0.099644 -0.065982 -0.048936 -0.192108 -0.20498 0.046367 0.013923 0.034867 -0.097724 -0.12397 0.101748 -0.130096 -0.035759 0.044295 0.085712 -0.095098 -0.141293 -0.07251 0.149945 0.084879 0.036883 -0.045274 -0.181327 -0.004404 -0.111894 0.01487 -0.105824 -0.066905 -0.077147 -0.058188 -0.091842 -0.127519 0.013684 0.122099 -0.105389 0.103093 0.018526 0.164336 -0.120142 0.030761 0.025408 0.012456 0.186438 0.026887 -0.015504 -0.181228 0.37685 0.137048 0.00551 -0.082172 -0.005502 0.001217 0.02033 -0.036213 -0.101755 -0.228558 0.248277 -0.045343 0.231277 0.051713 0.259463 -0.189023 -0.110628 -0.098264 -0.091191 -0.061413 0.105073 0.031218 -0.016552 0.115195 -0.218511 0.100268 0.015682 0.299194 -0.042456 -0.015666 0.093734 0.173661 0.102807 0.01325 -0.117716 0.028801 0.069464 -0.015277 0.162185 0.135495
government -0.091681 -0.089995 -0.009987 0.01609 0.004349 0.06774 -0.187217 0.097328 0.06186 -0.017959 -0.052375 -0.047007 0.152649 -0.136051 -0.067936 -0.007069 -0.188661 0.068164 -0.139566 -0.048863 -0.054273 -0.036593 -0.074606 0.11645 0.019783 -0.178151 -0.040809 0.083082 -0.044034 0.096796 0.033357 0.0149 0.09169 0.040255 -0.042783 0.136562 -0.095002 0.117262 0.057135 -0.045317 0.015759 -0.081621 -0.004211 -0.211982 0.013899 -0.075532 -0.021972 0.10303 0.116002 0.01301 -0.082207 0.008518 -0.083992 -0.010322 -0.096553 -0.010673 -0.012346 -0.061338 -0.044809 -0.015819 -0.11037 -0.066975 0.062968 -0.059864 0.071965 -0.11222 -0.036665 -0.005042 0.099935 0.00462 0.043498 -0.007815 0.017211 0.158073 -0.076879 -0.041672 -0.069555 -0.040236 -0.048841 -0.102155 -0.08981 -0.070991 -0.086551 -0.006068 -0.063595 0.04087 -0.213147 -0.069809 0.023505 -0.097264 0.169555 -0.058317 -0.183869 0.117468 0.061014 0.033589 -0.101618 0.010772 0.052621 0.053311 -0.045716 -0.076825 -0.079731 -0.187061 -0.148596 -0.078181 -0.06124 -0.105524 0.03579 -0.027347 0.046733 0.082103 0.022198 0.001378 0.058595 -0.034294 -0.042943 -0.010745 0.081104 0.022424 0.068379 -0.048897 0.085588 0.04165 -0.029921 0.024482 -0.116927 -0.020707 0.03243 -0.040353 -0.070097 0.017533 0.071266 -0.056151 0.078037 -0.051027 -0.013639 -0.017159 0.008669 -0.078144 0.028339 -0.019802 0.091339 0.013873 -0.040552 -0.01161 0.060875 -0.007844 -0.094835 -0.001778 1.95E-4 -0.047326 -0.017717 -0.107179 0.184864 0.084187 -0.006707 -0.163429 0.042881 -0.148218 0.062776 0.004538 0.021946 0.122331 0.081911 -0.141201 -0.044752 0.062954 -0.025258 0.040902 0.051708 -0.138825 0.080913 0.065823 0.027884 0.108081 0.04844 0.084867 -0.097703 -0.050618 -0.049313 -0.044717 -0.047849 -0.149552 -0.084347 -0.065417 0.121976 0.048982 -0.050682 -0.011351 0.091526 0.004027 -0.048128 0.028778 -0.07113 -0.016056 0.02121 0.071062 0.036542 -0.036706 0.044485 -0.016817 0.117624 -0.06933 0.01428 0.118644 0.103969 0.005015 -0.052362 -0.066962 -0.035253 -0.032402 -0.009233 0.016993 0.12227 -0.060069 -0.019606 -0.039726 0.037484 -0.124409 0.04408 -0.008281 0.011216 0.087825 -0.053772 -0.109735 0.012055 0.037222 -0.150102 0.086935 0.105041 0.139456 -0.150303 -0.14416 0.146504 -0.051314 -0.057676 -0.016151 -0.044535 -0.190332 0.016232 0.008124 0.070924 -0.017879 -0.05046 -0.045479 0.123139 0.030084 -0.103328 -0.194505 0.083158 -0.056855 -0.02124 -0.084315 0.116811 0.050699 -0.119768 0.087839 -0.014517 0.045596 0.018364 -0.040358 -0.01325 -0.013961 0.004324 -0.06621 0.074025 -0.005867 0.001336 0.048019 -0.093667 -0.061333 -0.024442 0.019069 -0.019308 -0.033563 0.118726 0.037139 -0.010286 0.192858 -0.001352 -0.00415 -0.109109 -0.108791 -0.012104 -0.053357 0.008905 -0.003762 -0.060976 -0.087244 -0.092477 -0.063903 0.021003 0.025768 -0.087845 -0.073236 -0.0357 0.089995 0.062879 -0.047477 -0.065439 0.012782 -0.044831 -0.003247 -0.071644 0.167743 0.141899 0.032594 0.030384 -0.105583 -0.123586 -0.061282 -0.103561 -0.051915 -0.017593 0.041922 0.065232 0.015724 0.05328 0.009664 0.119252 -2.1E-5 -0.050386 0.024524 -0.002649 0.017743 -0.032945 0.023457 0.023452 -0.0403 0.034712 -0.051224 0.033395 0.153447 -0.164875 0.070524 0.019754 0.027124 0.003801 0.020992 -0.056356 0.010491 0.033636 0.090443 0.0718 8.34E-4 -0.055628 -0.088146 -0.045196 -0.056774 8.86E-4 0.019123 0.033833 0.063548 0.034141 0.020561 -0.0318 -0.008218 0.034059 -0.020423 0.056823 -0.056503 0.029973 0.022525 -0.00185 0.084697 0.018099 -0.099607 0.043722 0.099745 -0.0455 0.12297 -0.007065 -0.056536 0.030264 0.082006 0.015338 -0.099564 -0.027457 -0.051813 0.062918 0.060167 -0.132571 0.128157 -0.042369 -0.010932 0.005544 -0.067619 0.0165 0.096653 0.050477 -0.048686 0.026736 0.091213 0.096537 0.126634 0.015159 0.009425 -0.003879 0.160241 -0.131462 -0.005232 -0.261418 -0.053347 0.011397 -0.044451 0.03225 0.048881 -0.08882 -0.133269 0.154102 0.021947 -0.068507 -0.021584 -0.002155 0.017438 0.078234 -0.081894 0.010841 -0.101144 0.079083 -0.021412 -0.044666 0.140649 -0.047315 -0.001062 -0.048373 -0.171816 0.144956 0.097204 0.009134 0.099712 -0.00429 -0.070415 0.009252 0.068883 0.066862 0.111169 0.086013 0.033297 0.006379 0.156965 0.027314 0.039886 8.97E-4 0.131173 -0.070082 -0.00717 -0.021272 0.15041 0.021485 0.070887 -0.142714 0.049833 -0.073717 0.035896 -0.00138 -0.068032 0.007717 -0.033652 0.121589 -0.031517 -0.116979 -0.097984 -0.078093 0.077564 -0.111504 -0.103888 -0.039757 -0.014139 -0.02865 0.065532 0.014719 -0.032466 0.090333 -0.104486 0.095521 -4.36E-4 -0.060598 -0.078845 0.014599 0.100122 -0.054027 -0.155164 0.02629 0.036667 -0.080641 0.096626 -0.005089 0.060099 0.03227 -0.043557 -0.086034 0.004303 0.085428 0.061707 0.007565 0.164345 -0.145531 0.037408
madhouse 0.132432 0.221266 -0.117276 -0.033448 0.096192 0.100614 0.105997 -0.169671 -0.378723 0.098524 -0.005425 -0.136687 0.147429 -0.106913 0.322666 -0.073258 -0.112801 -0.169871 -0.096139 0.040471 0.250414 0.108851 -0.097126 0.060058 0.104982 -0.055797 0.124612 0.074755 0.09777 0.03895 0.025439 -0.148197 0.14682 0.153309 -0.058749 -0.128428 -0.001081 0.124908 0.03579 -0.028951 0.054885 0.029717 -0.111231 -0.150303 0.092862 0.002624 0.232171 -0.024849 0.027455 0.074753 0.053526 0.096184 0.005596 -0.020512 0.111246 -0.293812 0.044319 -0.053575 0.320653 0.186387 0.138263 0.10622 0.259647 0.066797 0.033661 -0.149639 0.176393 0.189983 -0.231306 0.197383 0.050804 -0.041351 0.255539 0.215823 0.117636 -0.033936 0.059111 0.105845 0.284393 0.255337 -0.125575 -0.113436 0.029598 0.015535 -0.04222 -9.63E-4 0.068982 0.171233 -0.053513 0.144493 0.026853 0.203677 0.280695 -0.179842 -0.114983 -0.217223 -0.006195 -0.023298 0.158006 -0.018519 0.055106 -0.119651 -0.060152 -0.229003 0.108437 0.196979 -0.120498 -0.005881 0.10735 0.111934 -0.050667 0.222125 -0.008943 0.317302 0.05776 -0.054932 -0.108762 0.094598 0.237706 -0.028329 -0.021327 0.015928 -0.033691 -0.069713 0.031554 -0.01248 0.201877 0.365248 -0.142317 -0.014361 -0.057033 0.013887 -0.134574 0.356459 -0.009866 -0.262691 -0.325818 -0.018382 -0.047907 0.184238 -0.223774 -0.0097 0.235382 0.134124 -0.108098 0.032347 -0.095484 -0.145843 -0.040939 -0.017856 -0.013841 0.142203 -0.059782 -0.036087 0.088538 0.157451 -0.122523 0.034612 0.193191 0.076524 0.23652 0.016943 -0.096048 0.039635 -0.052843 -0.154411 0.053121 0.229753 -0.085697 -0.130463 0.207783 -0.056536 0.151896 0.015101 0.208108 -0.076414 -0.114615 0.019093 -0.006156 -0.018224 0.021712 0.051225 -0.025938 0.143692 -0.18972 -0.144363 -0.080376 -0.088379 -0.023352 -0.026275 0.117819 -0.121394 -0.058464 -0.111512 -0.13915 -0.076995 -0.087094 -0.047409 -0.04735 -0.012014 -0.049132 0.156706 0.107277 0.026238 -0.065738 -0.107374 0.031243 -0.029068 0.138747 -0.155661 0.017909 0.137107 -0.051308 -0.329805 -0.024219 0.098893 0.111825 -0.060118 0.053141 0.097387 -0.130094 -0.12368 -0.031325 -0.043893 0.132782 -0.14385 0.030053 -0.035608 -0.253835 0.03198 0.133456 -0.155214 0.200194 0.030358 -0.148315 0.19426 3.98E-4 -0.002311 -0.052901 0.178193 -0.004348 -0.081942 -0.040577 -0.011992 0.048587 0.083867 -0.037599 -0.03172 0.098855 0.16327 0.149694 0.013672 0.10362 -0.006054 0.037832 -0.163924 0.105456 0.138555 -0.219322 -0.138617 0.231638 -0.069016 -0.127498 -0.19851 0.139377 0.191863 0.033856 -0.177557 0.188348 -0.004079 0.13183 0.072577 -0.053562 -0.26097 -0.020499 -0.009321 -0.01125 0.039603 0.034698 0.02959 -0.136946 -0.151268 -0.174521 0.301389 -0.112554 -0.058495 0.332232 0.018452 0.071942 -0.179903 0.021897 -0.044455 -0.131322 -0.073413 0.095292 -0.223662 -0.09654 -0.207953 0.179171 0.136362 -0.078815 -0.035471 -0.083802 0.041298 1.46E-4 0.25795 -0.179637 0.004304 0.047524 0.121027 -0.073188 0.029154 0.039748 -0.071753 -0.022607 -0.181487 -0.043986 0.031157 -0.034423 0.040749 -0.115972 -0.089693 -0.108114 0.186803 -0.044546 -0.078636 0.096882 0.037426 -0.057106 0.109596 -0.194699 0.191388 0.081096 0.079256 0.031756 -0.148658 -0.056302 -0.104163 0.030804 0.195157 0.041084 0.053913 0.024134 -0.112592 -0.01407 -0.028859 -0.098659 -0.005014 -0.05698 -0.062711 -0.19129 -0.064632 0.080438 -0.023251 -0.056589 -0.113727 0.009729 0.155239 -0.154098 -0.120108 0.075137 -0.2522 -9.56E-4 -0.035756 0.047409 -0.137788 0.26157 -0.220077 -0.069736 -0.028806 0.242434 0.028415 -0.157456 0.134601 0.078682 -0.161296 0.071215 0.127026 -0.145108 -0.125704 -0.155017 -0.071728 0.123548 -0.379537 -0.002052 0.053419 0.178569 -0.069644 -0.04412 0.15055 0.120553 0.031688 0.192969 -0.189307 0.132212 -0.256388 -0.115662 0.194534 -0.141281 -0.219331 0.069182 0.054705 0.176025 0.037005 0.294967 0.001448 0.099624 0.014407 0.190277 0.027417 -0.254818 -0.111125 -0.168053 -0.027301 0.229964 -0.023654 -0.184047 -0.041896 0.115705 0.047909 -0.056633 -0.067641 0.117757 -0.135514 0.106373 -0.196228 -0.131287 0.038693 0.335935 -0.203726 -0.30317 0.020493 0.177028 0.089627 -0.207427 0.168821 -0.016085 -0.013557 0.047764 -0.017142 -0.062551 -0.04166 -0.150362 -0.012285 -0.17274 0.017155 0.003186 0.047605 0.230653 -0.254507 -0.19285 0.003825 -0.005932 0.065046 0.100282 0.02884 0.150322 -0.117902 0.093153 -0.186872 -0.151767 0.018711 -0.091499 -0.194602 0.141552 -0.032634 0.066817 0.048316 0.02751 0.175627 -0.20539 -0.005825 -0.054001 -0.014284 -0.160701 0.125306 -0.159329 -0.019219 -0.089901 0.072499 -0.044989 -0.077487 0.181488 0.16251 -0.108068 -0.165268 -0.18229 -0.195563 0.035886 -0.171633 0.024443 -0.107515 -0.260957 -0.009616 -0.076474 -0.168659 -0.040928 -0.058574 0.199193 0.236249
video -0.040193 -0.057381 -0.00685 0.067691 0.152427 0.023419 0.220038 0.081683 -0.011271 -0.001531 0.051483 0.115126 -0.163647 -0.043378 -0.004621 0.143447 -0.12594 0.13216 0.284348 0.12851 0.088108 -0.206251 0.156426 -0.040744 0.094272 0.107287 0.076488 0.064662 -0.340688 -0.043792 -0.202793 -0.201786 0.021603 0.017577 0.021207 -0.294029 0.18401 -0.195193 0.065984 -0.0059 -0.014537 -0.209236 0.05329 0.172818 0.054658 0.191979 0.019606 -0.052843 -0.076254 0.03093 -0.042208 -0.070072 0.030618 0.007376 -0.139118 -0.137297 -0.015599 -0.016754 -0.066977 0.284028 0.050039 -0.002413 0.010305 0.038593 -0.00284 0.248658 0.108353 -0.140656 -0.069011 -0.070159 -0.022962 -0.131756 -0.048298 1.88E-4 -0.061432 -0.134582 3.6E-4 0.08707 0.091655 -0.074158 0.03264 0.295044 0.125112 -0.044371 -0.100694 0.173713 0.047857 0.043747 0.004136 0.028613 -0.108999 0.008763 0.085285 0.001609 0.01631 -0.044367 -0.02181 -0.034398 0.179739 0.072823 0.114328 -0.132506 -0.093409 0.077525 -0.070938 0.063276 0.057718 0.047758 0.04107 -0.010367 0.178388 0.067774 0.107523 -0.213595 0.024672 0.086983 -0.003425 0.195277 0.255525 -0.033546 0.033443 0.039728 -0.151269 -0.06028 -0.145962 0.119186 0.037566 0.051075 -0.094723 0.010774 0.155182 0.125623 -0.061344 0.042698 -0.031305 0.127319 0.021101 0.00669 0.155505 -0.098934 0.136604 0.049733 0.008005 0.060599 -0.043239 -0.186884 0.091728 0.066452 -0.183384 0.179562 -0.109679 -0.052905 0.261781 0.053586 -0.044774 -0.004738 0.00732 0.058466 -0.205431 -0.18038 -0.124999 0.051298 -0.083743 -2.3E-4 -0.019953 0.031847 0.163216 0.056746 0.00154 -0.037248 -0.052413 -0.232137 -0.038845 0.072501 -0.036494 -0.072228 -0.002791 0.096407 0.091674 -0.206426 0.046611 -0.13041 0.096878 -0.128337 0.040742 0.18686 0.113767 0.10624 -0.002909 -0.014113 -0.248001 0.080015 0.157097 0.061696 -0.085562 -0.055748 0.106651 -0.069564 -0.033779 0.124525 0.015616 2.96E-4 0.16162 -0.074705 -0.093918 0.060414 -0.084736 -0.059 0.108296 0.167489 0.087461 -0.064831 0.028587 -0.125852 -0.161351 0.106714 -0.114943 0.050044 -0.110664 -0.035111 -0.062427 -0.066701 0.235995 0.062711 -0.042215 0.059349 0.1636 -0.039411 0.029095 0.251587 0.27284 0.061325 -0.259255 -0.056282 0.197153 -0.215447 -0.087668 0.057945 -0.059252 0.11082 0.109302 -0.0401 -0.107984 0.02072 -0.055924 -0.097188 -0.019092 -0.038195 0.074964 -0.076755 0.013338 -0.152011 0.02896 0.089606 -0.12696 0.028457 0.107078 0.072388 -0.057771 3.16E-4 0.026914 0.08757 -0.062956 0.11547 0.081304 0.101744 -0.038697 0.030936 0.177927 -0.046706 0.067048 0.149263 0.150323 0.104149 -0.042582 -0.087087 0.08246 -0.114074 -0.017554 -0.158494 -0.001397 -0.017917 0.11115 -0.007354 -0.037735 0.005487 0.082301 0.009772 -0.066568 0.047114 -0.064917 0.021162 0.036336 0.091016 0.1794 0.080766 0.00583 0.052282 -0.059842 -0.115006 -0.003712 -0.095702 0.137249 -0.002264 0.043471 -0.051811 0.102368 -0.105417 0.010314 0.082402 0.043573 -0.004625 -0.085686 -0.101996 -0.116129 0.002278 -0.03803 0.283106 -0.052396 0.14138 -0.116179 0.034297 -0.185441 0.040724 -0.020704 0.049127 -0.175236 0.088554 -0.157392 -0.03915 0.132962 -0.056464 0.050575 -0.165733 -0.061651 -0.022151 -0.117408 -0.004266 -0.013619 0.27299 -0.0177 0.125435 0.006255 -0.145896 0.035682 -0.118095 0.119627 -0.121483 0.001609 -0.110337 -0.026654 -0.02826 0.033987 -0.009769 0.054806 0.192626 0.041148 -0.076323 -0.082953 0.027388 -0.077434 -0.035694 -0.073191 0.12362 0.004472 -0.052678 -0.00311 -0.017967 -0.071788 -0.207404 0.002475 0.005988 -0.038391 -0.065082 -0.078324 -0.194548 0.045788 0.00611 -0.052093 0.009122 -0.166315 -0.100625 -0.043739 0.070078 -0.090599 0.027533 0.023156 -0.019401 -0.003778 0.012562 -0.162206 0.027062 0.134624 0.100608 0.036437 -0.068141 0.086501 0.045411 0.100651 0.13666 0.003617 0.001784 0.065634 -0.063379 -0.170543 -0.123018 0.033263 0.315201 0.112527 0.140381 -0.043784 0.244758 0.011117 -0.067887 0.063345 -0.164977 -0.01334 -0.180818 0.022862 -0.120093 0.126209 -0.132663 0.053624 0.012552 0.00369 0.050865 -0.173725 -0.016144 0.028663 -0.010141 0.125551 0.00622 -0.106664 -0.028191 -0.031188 -0.062579 0.052379 -0.090926 -0.058828 0.10826 -0.051681 -0.177411 0.067189 0.017524 0.187408 0.192093 -0.110008 -0.050122 0.065897 -0.01345 0.054985 -0.175247 0.146466 -0.017398 0.078085 -0.009956 -0.096374 -0.14676 0.082654 0.052174 0.081357 0.041466 0.006357 -0.12401 0.021001 0.122251 0.065958 0.191392 0.169913 -0.121833 0.099433 0.145685 -0.09449 0.047585 0.04299 0.073891 -0.106411 -0.018408 -0.114444 0.011472 0.019451 -0.031286 -0.132318 -0.087399 -3.59E-4 0.131318 -0.201693 -0.036538 -0.190429 0.064987 -0.063838 -0.193431 -0.118638 0.076221 -0.021183 -0.137987 -0.048967 0.054115 0.057254 -0.107781
defeating -0.084554 -0.13942 -0.076254 0.323869 -0.041422 -0.138008 0.103026 -0.194343 -0.010353 0.223521 -0.202982 -0.117895 0.194086 -0.100609 -0.034634 0.025326 -0.037332 -0.285968 0.17603 0.044292 0.042453 -0.101745 -0.240787 0.378427 -0.095729 0.188388 -0.131966 0.06143 0.018564 -0.067153 0.121789 0.46549 0.143428 0.169178 -0.299123 0.152166 -0.054576 -0.045741 0.099385 -0.122463 0.036536 -0.067298 0.053911 -0.108938 -0.111117 -0.134317 0.117441 0.215226 0.133093 0.046823 -0.009974 -0.080931 -0.198281 -0.130986 0.064911 0.085705 0.14259 -0.032169 -0.087277 -0.116513 0.101121 0.04303 -0.021801 0.127559 0.126785 -0.218187 -0.179349 0.122884 0.117916 0.275235 0.027265 -0.117323 0.08029 -0.187044 -0.045229 0.006842 -0.141054 0.093537 -0.128459 0.049494 0.227835 0.174038 -0.098498 -0.039391 0.186625 0.235721 0.113881 -0.00811 0.1491 -0.138287 0.112891 -0.153779 0.240126 0.210838 -0.071423 0.173906 -0.286791 -0.108302 -0.005246 0.17268 0.248165 -0.13594 0.107275 0.054381 0.006936 0.060853 0.025559 0.049438 0.05193 0.056838 0.047014 -0.071079 0.072023 0.036256 0.250015 0.133748 -0.315263 0.20653 0.130143 -0.239186 0.039053 0.201539 -0.019597 0.114287 -0.010312 -0.136563 -0.159062 -0.06416 0.054009 -0.257047 0.099215 -0.056911 -0.143574 0.025279 0.020424 0.030217 -0.006135 -0.202243 0.186484 -0.404724 0.024723 0.178256 -0.017176 0.07691 0.018712 -0.118056 0.132412 -0.092628 0.10258 0.116208 0.009371 -0.105855 -0.01678 -0.053772 -0.018131 -0.284796 0.227886 0.041422 -0.030224 -0.006511 0.080677 0.033149 0.060474 -0.134958 0.117569 0.06538 0.162176 -0.084708 -0.123486 0.131407 -0.107097 -0.073091 0.120386 0.129614 -0.084842 -0.014802 -0.189727 -0.061045 0.045455 -0.259278 -0.293301 -0.174018 -0.034101 0.111931 -0.085295 -0.056958 -0.130349 0.128174 0.008274 0.181787 0.548988 0.17159 0.181516 -0.003772 0.083852 -0.220048 -0.326729 -0.032093 -0.193723 -0.343295 -0.095381 0.137679 0.140067 0.156058 -0.134678 0.015083 -0.088103 -0.033564 -0.138993 0.0188 -0.072985 0.146787 -0.098183 -0.014181 0.046109 -0.158455 0.023116 -0.09127 -0.049577 -0.001139 -0.047112 -0.062034 -0.11096 -0.085281 0.019012 0.132895 0.077245 0.018268 0.20922 -0.007893 0.173373 0.126754 0.082183 -0.010793 -0.241479 -0.060185 -0.03167 -0.090341 0.06821 -0.124162 -0.244837 0.147543 -0.0896 -0.138957 0.043948 0.211419 -0.196777 -0.030859 -0.244186 0.064422 0.05543 0.191339 0.244952 0.096291 0.131143 -0.105706 -0.089921 0.13244 -0.088978 0.072816 0.040652 0.326857 0.14279 -0.256181 -0.053715 -0.108291 0.234177 -0.007936 0.007273 0.146335 -0.079532 -0.030953 -0.104183 -0.052445 0.238465 -0.057009 -0.14418 0.102136 0.068954 0.091924 0.003155 0.069458 -0.166585 0.103865 -0.010815 0.116999 0.203332 -0.158985 0.020041 -0.072733 -0.052897 -0.085909 0.114594 0.156565 -0.143517 -0.014725 -0.07877 0.243617 -0.004318 0.133443 -0.030007 -0.147392 -0.070313 -0.009899 -0.14389 -0.078843 -0.085768 0.118632 0.108063 -0.064585 -0.046686 -0.00751 0.240575 0.008599 0.029354 0.061568 -0.083021 0.157381 0.034839 0.045019 3.43E-4 0.15727 -0.126055 -0.021686 -0.035694 0.112002 -0.116335 -0.05376 -0.155433 0.018398 -0.181207 0.223084 0.031807 0.010609 -0.076249 0.077744 0.066372 -0.093107 -0.043191 0.275854 -0.069505 0.12256 -0.108813 0.239294 0.052408 -0.075751 -0.066864 0.007944 -0.115389 0.132497 -0.088636 0.184527 0.027239 -0.114583 -0.055245 0.057999 -0.123069 0.023274 0.052721 -0.067838 -2.18E-4 0.015897 0.056101 0.193452 0.080265 0.12977 0.20242 -0.043284 0.128876 -0.080416 0.013348 -0.101765 0.249318 -0.107137 0.064315 0.056347 -0.030411 0.018326 0.03612 -0.133104 -0.054431 0.055585 0.233674 0.154479 -0.093517 -0.09354 -0.100273 -0.023338 -0.008049 -0.132023 0.152043 0.206498 0.118175 -0.216257 -0.190276 0.012425 -0.273403 0.182664 0.212492 0.070917 -0.076375 0.06708 0.143251 0.060137 0.062756 -0.020586 -0.096557 -0.066556 -0.180684 0.059123 0.03889 0.11679 0.015182 0.088316 -0.129518 0.231995 -0.026193 -0.121995 -0.034405 -0.019732 0.031537 -0.081858 -0.012511 -0.006113 -0.09262 0.022832 0.132755 -0.210973 -0.015463 -0.056185 0.174949 0.049462 0.100176 0.071947 0.105252 0.057385 -0.060733 -0.169183 -0.043692 0.088895 0.127212 -0.086084 0.073767 0.00682 -0.004489 0.201554 -0.105006 -0.091202 0.026444 0.166814 -0.166336 -0.144677 0.156298 0.175839 -0.049152 -0.006148 -0.067148 -0.139213 0.080056 -0.231557 0.098866 0.076296 0.077571 -0.059028 -0.096384 0.158894 -0.020326 -0.002838 0.058083 0.020129 0.148856 -0.124621 -0.252426 0.091768 -0.197354 0.084974 0.07349 -0.032834 0.163386 0.055912 -0.014031 0.079354 -0.066124 0.297191 -0.118271 0.075782 -0.153214 0.10118 -0.086653 0.045036 -0.038875 -0.031959 0.225714 0.140071 -0.096203 0.025294 -0.043743 -0.031849 0.039377 -0.046391
death -0.282748 0.025918 -0.056258 0.016666 -0.002782 0.05994 -0.059273 0.129759 -0.056021 -0.060496 0.093886 0.082093 -0.045741 -0.029464 0.034403 -0.059981 -0.054902 -0.001845 -0.058599 0.142052 -0.012725 -0.140048 -0.231078 0.044037 -0.191631 0.026019 0.150603 -0.074528 0.075341 -0.08239 0.127576 -0.042008 -0.059186 0.229592 0.029212 0.186089 -0.021386 -0.058346 -0.033051 -0.203834 -0.146301 -0.124449 -0.084886 -0.009464 0.158042 0.288706 0.084456 0.117524 0.063272 0.101707 0.092817 -0.171972 -0.048697 -0.139053 -0.146286 0.002529 -0.065819 -0.159829 -0.090258 0.092043 -0.024615 -0.162336 -0.080617 0.075515 0.014788 0.131119 0.050536 0.216765 -0.123496 -0.30743 0.069326 0.007581 0.148762 0.214099 -0.022836 0.086437 -0.101097 -0.001094 0.117992 -0.032419 -0.077227 0.093769 -0.044812 0.135586 -0.079328 0.199921 0.060853 0.085082 0.077529 0.006356 -0.124028 0.067894 0.026652 -0.076003 -0.249903 -0.032806 -0.200327 -0.145806 0.179482 0.047443 0.073293 -0.0036 0.062783 -0.076305 0.030505 -0.073482 -0.184293 -0.013273 0.136785 0.012417 0.033961 0.009177 0.028787 0.078498 0.11974 -0.115023 0.066939 -0.104365 -0.15148 0.050744 -0.133928 0.097629 0.190958 0.078552 -0.111571 -0.003773 -0.009563 0.048651 -0.02499 -0.054488 -0.077495 -0.144618 0.008362 8.56E-4 0.146845 0.100936 0.208407 0.208086 0.011849 0.003651 -0.029686 0.032254 -0.239562 0.093408 -0.019693 -0.27772 0.084731 -0.039014 -0.011547 0.086147 -0.074722 0.230494 0.001302 0.136218 -0.011943 0.041197 0.069582 0.063825 -0.026883 -0.065121 -0.004097 0.134834 0.074081 -0.008968 0.028744 -0.210132 0.039857 -0.053772 0.00559 -0.19099 0.094728 0.037413 -0.120649 -0.036933 -0.067042 0.01774 -0.056854 -0.09718 -0.093539 -0.003645 -0.034122 -0.111757 -0.033597 -0.086283 -0.014072 0.008997 -0.129768 0.193866 -0.211773 0.082715 -0.004276 -0.067567 0.112259 0.008912 0.119994 0.075669 -0.130059 0.070491 0.008174 -0.107922 -0.07125 -0.045492 0.049709 0.07294 -0.037899 0.00313 0.17622 0.036305 0.205852 -0.008335 0.126082 0.164483 -0.026494 0.022612 -0.032232 0.047532 1.82E-4 -0.0656 0.049311 -0.066144 -0.194306 0.03978 0.024482 0.153638 -0.153693 -0.01681 0.023593 -0.038215 0.06259 -0.020362 -0.042182 0.072043 -0.113423 -0.033384 0.022487 0.038596 0.232618 0.16159 -0.018083 0.176738 0.016983 0.035829 0.200684 0.118738 0.094973 0.042974 -2.24E-4 0.028285 -0.038906 -0.010976 0.222947 0.031892 0.130278 0.182845 0.040458 0.007703 -0.008927 0.036399 -0.062645 -0.121926 0.001433 -0.151199 -0.17505 0.10642 -0.022248 0.048094 -0.037562 -0.020545 0.019787 -0.050854 0.169443 -0.170398 0.044013 -0.03765 0.021771 0.08943 -0.041541 0.055895 -0.024603 0.231733 0.035116 -0.063872 -0.069992 -0.130124 0.019427 -0.0595 -2.04E-4 0.173559 -0.094901 0.042389 0.017572 -0.114066 0.115406 -0.167008 -0.011117 -0.090624 -0.056497 0.047937 -0.050229 0.047443 -0.030092 0.029024 0.05455 0.147011 0.088713 0.089818 -0.124758 -0.077185 -0.10402 -0.025376 -0.057659 -0.01875 0.08472 0.010822 -0.11019 -0.039922 -0.045065 -2.77E-4 -0.043029 -0.060225 -0.09305 -0.006304 -0.106765 -0.094936 0.048934 0.018195 0.032025 -0.131867 -0.165189 -0.060121 -0.045934 -0.003205 0.022229 -0.087915 0.037584 0.006245 0.079616 0.060032 0.112143 0.035802 -0.124404 -0.102362 -0.11209 -0.06878 -0.17951 -0.100862 -0.021217 0.067469 -0.050308 0.249295 -0.111468 0.093044 -0.020617 0.22018 0.068667 -0.057318 0.157379 -0.025896 0.066279 0.072318 0.230356 -0.043416 0.093399 0.146732 0.04894 -0.077486 -0.027346 -0.134236 -0.109313 -0.043678 -0.040938 -0.031149 -0.040901 0.087923 0.228232 -0.005015 0.042929 -0.030815 -0.258424 0.092469 0.043388 -0.090702 -0.031652 0.112757 -0.107553 -0.010976 0.148005 0.00863 -0.074937 8.78E-4 -0.081156 -0.088544 -0.077739 0.017207 -0.052738 -0.071107 -0.117876 -0.265352 -0.10972 -0.003038 -0.187185 -0.114821 0.074713 0.006248 0.025244 0.049758 0.086993 -0.137644 -0.046864 -0.131502 -0.115242 0.15229 0.075278 -0.13452 0.10698 -0.002537 -0.077181 0.070849 -0.08864 -0.019047 0.09901 -0.152302 0.090169 -0.072879 0.065109 -0.194069 -0.129881 0.039189 -0.098712 0.090226 0.106859 0.117416 -1.17E-4 0.042778 -0.037563 -0.279702 0.05221 -0.209987 -0.027696 -0.011094 0.039504 -0.158109 -0.095772 0.009943 -0.028868 0.09307 0.045516 0.161588 -0.047875 -0.016593 0.021633 -0.089149 0.054591 0.176694 -0.126539 0.086054 -0.168937 0.074826 -0.005487 -0.013563 0.222859 0.192691 -0.058074 -0.058428 0.05799 0.019277 -0.08214 0.055858 -0.125087 -0.043849 -0.047007 0.147272 0.099171 0.097983 0.003997 -0.12198 -0.140477 -0.035841 0.063122 0.055003 -0.10576 -0.015519 -0.176593 -0.018641 0.020246 -0.268928 -0.03448 -0.074293 -0.063004 0.149511 -0.049136 -0.018296 -0.189228 0.04415 0.099696 0.088822 -0.023545 0.040639 0.056881 -0.091595
image -0.087439 0.07605 -0.061055 -0.245166 0.020219 0.121988 0.050751 0.032507 -0.002438 -0.024888 0.137834 0.075292 0.062254 -0.132494 -0.037038 -0.139082 0.008016 0.093699 -0.027444 0.092064 0.129075 -0.082024 -0.012456 -0.033712 0.039891 -0.066141 0.022951 0.020599 -0.062041 -0.072664 -0.129818 0.075955 -0.031084 0.072648 0.077634 -0.244826 0.008505 -0.029781 0.098861 0.065312 -0.079942 -0.101572 -0.062257 0.090235 0.014892 0.002766 0.078539 -0.001865 0.015636 -0.117355 -0.177463 0.031898 -0.130734 -0.062923 -0.091229 -0.18508 -0.204983 -0.033196 0.02294 0.099285 -0.006454 -0.041595 0.030736 0.067078 -0.107738 0.082828 0.045129 -0.019438 -0.095285 0.130603 -0.057614 -0.066081 0.016475 0.189436 -0.081128 -0.077245 0.027566 -0.01365 0.009918 0.099859 0.035949 0.056644 0.027597 -0.065262 -0.157867 0.073459 -0.069694 -0.009178 0.027884 -0.099051 -0.043782 0.088697 -0.123563 -0.010473 -0.075018 -0.016593 0.017885 -0.03091 0.150956 0.20668 0.003732 -0.014203 -0.200886 -0.023115 -0.09791 0.121711 0.089062 0.031723 0.084555 0.016696 0.09548 0.02219 -0.041432 0.05318 -0.030835 -0.01315 0.089061 -0.001046 -0.032158 -0.094003 -0.009327 -0.035447 -0.039128 0.096901 -0.035577 0.036861 0.031326 -0.044718 -0.00867 -0.058192 -0.084036 0.131986 -0.030373 -0.015197 0.033997 0.069033 0.061327 0.017205 -0.00763 -0.123301 -0.071688 -0.033761 -0.078156 0.114351 -0.051791 0.053956 0.049967 0.102579 -0.22221 -0.00142 0.126719 0.117478 0.145287 -0.044385 -0.111739 0.013567 0.133772 -0.019656 -0.076993 -0.013694 -0.016627 0.005601 0.018103 -0.076356 -0.068241 0.053245 0.201517 0.078966 -0.116929 0.045788 -0.025329 -0.081362 0.043598 0.220805 0.134754 0.006541 -0.152107 -0.04284 0.073259 0.038542 -0.018634 -0.027563 0.006719 0.011581 0.075956 -0.046618 -0.021094 0.099897 -0.077948 -0.094664 -1.32E-4 -0.027578 0.055524 4.44E-4 -0.070832 -0.035119 -0.088012 -0.147895 -0.01969 0.083587 -0.029658 0.07103 0.138681 0.06155 -0.234945 0.100124 -0.048882 0.045379 0.010878 0.054051 -0.007506 -0.027208 -0.028859 -0.021093 0.052229 0.146053 -0.079485 0.052391 0.074194 0.088526 -0.113737 -0.081276 -0.036447 0.165513 0.06459 -0.023237 0.095301 0.076897 -0.06592 0.133066 0.133185 0.17931 -0.141312 0.010023 0.067478 -0.241191 0.087153 0.026015 -0.134418 0.05918 0.073603 -0.180766 -0.091712 0.002212 -0.004745 -0.006705 -0.20467 0.123073 0.073843 -0.066451 -0.012598 -0.133879 -0.057432 -0.005486 0.01225 0.098892 -0.033647 -0.133821 0.095868 0.029853 -0.019466 -0.003849 0.029313 0.04815 0.150491 0.207738 0.109914 0.093478 -0.05447 -0.054856 0.043566 0.026544 0.008575 0.05624 0.020304 0.043887 0.076126 0.175174 -0.15201 -0.169667 -0.075401 -0.019958 -0.151978 -0.036325 -0.052162 0.002323 0.162672 -0.022988 -0.22405 -0.046215 -0.00944 -0.076573 0.079989 0.072662 -0.032656 0.003068 -0.065247 0.085271 -0.107095 -0.080534 0.122589 0.090594 -0.001798 0.07841 0.06809 0.073175 -0.048178 0.019909 -0.066483 -0.021677 0.095208 0.052223 -0.015214 -0.007214 -0.008933 0.037507 -0.054189 0.072074 -0.059618 0.086685 -0.029544 0.124011 -0.204121 0.134768 -0.021768 -0.056864 -0.193024 -0.045118 -0.126329 -0.053505 0.018543 -0.066542 0.176028 0.049926 0.13498 0.08166 -0.024498 -0.080473 -0.131668 0.075417 -0.014957 0.157316 0.03209 -0.081491 -0.028462 -0.145365 0.02034 0.089148 0.053568 -0.143623 -0.015774 -0.025993 -0.100948 -0.049613 0.008782 0.245541 -0.046393 -0.001738 0.009882 -0.024289 -0.069504 -0.163443 -0.15952 0.008076 0.051151 -0.011174 0.053795 0.003069 0.074448 -0.027507 -0.153799 -0.137984 -0.087109 0.120066 -0.035323 -0.042506 -0.040094 0.013264 -0.094233 0.003068 -0.041135 -0.085337 0.10629 -0.163372 -0.032457 -0.138766 0.023887 -0.08136 0.072364 0.055119 0.146401 -0.093557 -0.044209 0.047239 0.096327 -0.068278 -4.34E-4 0.039839 0.061384 0.030857 0.025358 0.014241 -0.060438 -0.006499 -0.001782 -0.037263 -0.084856 0.144525 0.073654 -0.042636 -0.129387 -0.067566 0.013731 0.073103 -0.018253 -0.041214 0.063195 -0.03466 0.008128 -0.047522 -0.011242 -0.181084 -0.009839 0.013858 -2.54E-4 0.055182 -0.067512 -0.017987 -0.015949 -0.103622 0.127594 -0.029489 -0.018382 -0.040083 0.093052 -0.102321 -0.006269 0.007597 0.00888 0.073026 -0.045658 -0.016913 -0.10247 -0.047616 0.012988 0.117859 -0.096255 0.006753 0.02477 0.141429 0.110652 -0.178693 -0.02598 -0.084375 0.085032 -0.002679 0.067487 -0.151861 0.101569 0.019979 0.0191 0.07754 0.018663 -0.105681 -0.02134 -0.029334 -0.113538 0.222245 -0.020366 0.004708 -0.112557 0.114463 -0.031414 -0.099437 -0.067047 0.14441 -0.041097 0.051385 -0.131783 0.022183 -0.059898 0.070755 0.030612 0.053433 -0.050402 -0.023667 -0.042917 -0.062334 -0.02606 -0.039722 -0.094093 -0.105478 0.00513 0.081297 0.109279 0.070371 0.104353 0.131825 0.043827 0.058491
theater 0.11224 0.124056 -0.018525 -0.066401 0.342689 -0.097108 0.051384 0.114098 -0.309869 0.150535 0.012014 0.075211 -0.060333 -0.052356 0.045406 -0.081125 -0.103786 -0.336706 0.056276 0.205658 0.092732 0.107229 -0.044823 -0.041044 0.265892 -0.239274 0.23139 -0.008785 -0.170693 -0.016715 -0.150148 -0.179999 -0.092718 -0.14543 0.018523 -0.044454 0.073246 0.005552 0.157831 -0.089623 0.034748 -0.148701 -0.092377 -0.069474 0.054927 -0.141902 -0.029526 0.075918 -0.129793 -0.058215 -0.204868 0.047241 -0.123437 0.032274 0.234814 -0.106126 0.037147 -0.04936 0.064446 0.03819 0.165636 0.103439 -0.061804 -0.045959 0.027615 0.00201 0.103831 0.082763 -0.023195 -0.014724 0.093932 -0.030923 -0.074683 -0.004549 0.137576 -0.133484 -0.053794 0.118923 0.168093 0.062904 0.055518 -0.036425 0.182583 -0.055781 -0.17744 0.196499 -0.026653 0.066923 0.082638 0.069601 -0.047277 -0.067977 0.072831 -0.077162 -0.113629 0.039429 0.014697 -0.06633 -0.052049 0.07376 0.05351 0.217883 -0.049265 -0.262291 -0.018801 0.113898 -0.00725 0.029421 0.125089 0.188782 -0.014472 0.089177 -0.155457 -0.027977 -0.154037 -0.005369 0.007754 0.037948 0.129166 0.009406 -0.056763 0.06196 0.104145 0.061842 -0.085062 -0.129698 -0.073689 0.008205 0.191988 -0.086812 -0.14883 -0.091337 0.106932 0.033601 0.157557 0.118837 -0.122469 -0.02541 0.097018 0.053615 0.026541 0.055242 -0.038194 0.02622 -0.023404 -0.047401 0.001186 -0.176456 0.096702 0.240519 -0.035526 0.039843 0.053186 -0.140692 -0.072167 -0.014348 -0.168003 -0.056561 0.023777 0.024915 -0.147352 0.201977 -0.058426 0.072287 0.077133 0.036896 0.062905 0.08549 -0.020059 -0.014101 -0.08108 0.070019 -0.029194 -0.093967 0.130857 0.068997 0.083631 0.008684 -0.057155 -0.027033 -0.153481 0.084023 -0.062453 0.136409 0.101823 0.126225 -0.005042 0.250874 0.0689 -0.202316 0.096166 -0.0457 0.216923 -0.14403 -0.133482 0.09975 0.025794 -0.154512 -0.021705 0.114006 0.148043 0.030696 0.133002 0.062136 -0.007972 0.109778 -0.079504 0.100665 -0.06301 0.270123 -0.031805 0.047097 0.151593 -0.158764 -0.069448 0.013233 -0.02966 0.063131 -0.040281 -0.061458 -0.032488 -0.244919 0.090552 0.174955 -0.164362 0.170916 0.012517 -0.081119 -0.090822 0.203807 0.021844 0.01874 -0.063285 0.096316 0.042649 0.008422 -0.113495 0.151146 -0.192407 0.142934 0.133898 0.214874 0.056065 0.04508 0.040465 0.146292 0.202647 -0.043622 0.236681 0.062189 -0.029621 0.050944 -0.091804 -0.11359 -0.00744 -0.031413 0.138568 -0.047141 -0.099661 0.090029 0.190239 0.050163 -0.056461 -0.014232 0.03827 0.230518 0.053334 0.199136 0.042134 -0.104432 -0.02139 0.226331 -0.094503 0.025331 -0.012678 0.117506 0.145305 -0.053024 0.045639 -0.164752 -0.031063 -0.180429 0.002551 0.163503 -0.101981 -0.147542 0.066179 -0.012891 -0.116583 -0.007651 0.078948 -0.037914 -0.08908 0.039429 0.108462 -0.351976 -0.036146 -0.080553 -0.119604 -0.00441 -0.029568 0.057027 0.221562 0.035517 0.033625 -0.026309 -0.085157 0.031974 0.086131 -0.080119 0.045729 -0.077499 0.065534 -0.068664 -0.047955 0.019556 0.022369 -0.053938 -0.108825 0.028646 -0.035746 -0.144102 0.057522 -0.0866 0.030329 -0.069549 -0.018348 0.166848 0.100237 0.017153 -0.056092 -0.006422 -0.052929 -0.002192 0.008803 -0.266576 -0.007082 -0.102903 -0.057675 0.097232 -0.08792 -5.5E-5 0.103407 -0.05449 0.120526 -0.026502 -0.165769 -0.190981 0.075255 -0.037677 -0.049501 0.120312 0.026061 -0.131008 -0.071252 0.226867 0.041311 0.025298 0.088135 -0.048464 0.006482 -0.299191 -0.026479 -0.058824 0.010336 0.040786 -0.072778 -0.056534 0.012785 0.162618 0.130019 0.079761 -0.132273 0.01168 -0.138163 -0.132202 0.092807 0.103104 0.013662 0.066997 -0.104474 -0.230179 0.039495 -0.254906 0.092945 0.040158 0.174539 0.149273 -0.044004 0.185335 -0.08826 -0.097294 0.21827 0.019685 -0.01071 3.8E-4 0.116035 0.013783 0.029544 0.056126 -0.057558 -0.076306 0.172528 -0.137229 -0.186609 -0.128584 0.121871 -0.031761 0.008669 0.134852 -0.011431 0.082996 0.031087 0.145918 0.190475 0.022095 -0.064918 -0.403523 -0.030906 0.001817 0.119182 0.049502 0.058894 0.14649 -0.091933 0.046224 -0.079835 0.122295 0.08851 -0.011037 -0.165084 0.096045 -0.152099 0.059217 0.092555 -0.025713 -0.044289 -0.007676 0.00974 0.162747 0.016315 -0.099616 -0.096526 -0.06165 0.181797 -0.008804 -0.010534 0.076938 -0.079234 0.013049 -0.042796 -0.124692 0.112487 -0.233938 0.098447 0.337005 -0.044861 -0.120079 0.069126 0.023619 0.046607 -0.092045 -0.029232 0.011676 0.018546 -0.03431 -0.014592 -0.203441 -0.101514 -0.015345 -0.167134 -0.101614 -0.035797 -0.029105 0.215778 0.076137 -0.093638 -0.04646 0.017058 -0.035834 -0.06417 -0.046298 -0.04238 0.141617 -0.148921 -0.046042 0.008217 0.11717 0.08692 -0.036693 0.059092 -0.088958 0.042585 -0.003329 0.028991 -0.020593 -0.082427 0.044203 -0.144814 0.136497
number -0.060445 -0.016586 0.202975 -0.007894 0.016716 0.033345 0.034743 -0.080462 0.050552 0.144965 0.055669 0.028671 -0.011481 -0.109981 0.042494 -0.02021 -0.042764 -0.021889 0.030711 0.060033 -0.05754 -0.022771 -0.005415 -0.056498 -0.031514 -0.056485 -0.079125 0.012191 0.050091 -0.008862 -0.096885 0.119335 0.021817 0.125224 -0.11328 0.001197 0.034066 0.034575 0.037652 0.035428 0.118551 0.007421 0.106989 0.072766 0.121782 -0.100551 0.055737 0.060753 0.089763 -0.166532 0.175551 -0.0386 0.092287 -0.004725 -0.016087 -0.092836 0.031087 0.070046 -0.232421 -0.035575 0.161375 0.053538 0.082634 0.046517 -0.111291 0.074907 -0.00336 0.063399 0.002663 0.02664 0.006721 -0.04455 0.094943 0.149555 -0.055088 -0.004451 -0.0162 0.041922 0.009153 -0.001274 -0.129945 0.098089 -0.158237 0.040726 -0.095763 0.018082 0.002304 0.100746 0.049102 -0.140649 0.069304 -0.037528 -0.039645 -0.064401 0.158996 0.083927 0.013252 -0.006142 -0.017691 -0.045752 0.128008 0.108377 0.077035 0.004908 0.110751 -0.006196 -0.162702 -0.006266 0.096026 0.060302 0.087023 -0.078278 -0.024966 0.009334 -0.042421 -0.069156 0.042281 -0.131057 -0.094777 0.100415 -0.043143 0.174949 0.033456 0.035283 -0.159188 -0.077995 0.027999 -7.6E-4 -0.048079 -0.029431 -0.052021 0.033569 0.038304 0.021574 0.077889 -0.08924 0.149688 -0.065961 0.113318 -0.045879 -0.034021 0.039871 -0.078656 0.101628 -0.047795 -0.02966 0.098071 -0.093489 -0.02773 0.01678 0.093576 -0.106007 -0.023157 -0.031798 -0.102505 0.137188 0.045399 0.051534 0.061769 -0.08086 -0.114248 -0.026902 -0.106238 0.121414 0.021645 -0.132835 0.094806 -0.058518 0.017009 0.205176 0.023754 -0.063489 0.194846 0.067497 -0.028944 0.134259 -0.051583 0.087498 -0.06914 0.013464 0.039176 -0.002944 0.045831 -0.078775 0.115652 0.033764 0.021175 0.072327 -0.117734 0.010185 -0.029896 0.036359 0.01662 0.03854 -0.139305 -0.049265 0.043944 -0.05266 -0.047588 -0.052026 -0.077505 0.022945 0.046085 0.013033 0.032674 0.068666 0.014987 0.141188 0.009759 0.046193 0.178635 0.095098 -0.060146 0.056495 -0.057213 -0.043462 0.023818 -0.037869 -0.058313 0.011224 0.171411 -0.060111 -0.0571 -0.025105 0.031531 6.02E-4 -0.048096 -0.014117 0.057656 -0.033377 0.008919 -0.003557 -0.14629 -0.059761 0.082792 0.009071 -0.024447 -0.038328 -0.031507 0.11509 -0.100165 0.035711 0.085877 0.122334 0.020507 0.304234 -0.021068 0.048292 -0.019306 -0.059912 0.024422 -0.025082 -0.083867 -0.091466 0.107516 -0.113471 -0.118442 0.098014 0.049869 -0.013879 -0.098003 0.047892 -0.039466 0.028012 0.103715 -0.055017 -0.221655 0.145972 -0.05619 0.043347 0.00748 0.017658 0.011017 0.030198 0.018093 0.027853 0.011265 0.023299 0.021377 0.090539 0.021965 0.029475 0.062696 0.077042 0.019766 0.036806 -0.133346 -5.61E-4 -0.088207 -0.057446 -0.085321 -0.089944 -0.064509 0.05182 -0.02287 0.029353 0.080286 0.034667 0.017538 0.174254 0.011095 0.075172 -0.137582 -0.021044 -0.019525 0.049808 0.108538 -0.14703 0.085289 -0.034663 -0.156463 -0.004934 -0.109363 0.023659 -0.056332 1.27E-4 -0.046413 0.07458 0.052586 -0.128889 0.036077 0.141262 -0.076573 0.195905 -0.099828 0.117105 0.001607 -0.04181 -0.090345 -0.209664 -0.010906 -0.096098 -0.016354 0.009543 0.072394 0.102579 -0.050666 0.041691 0.10553 0.037684 0.027218 0.046463 -0.03391 0.093358 0.015664 0.06162 0.048211 0.132519 -0.08765 -0.001553 -0.011207 0.010236 0.068911 -0.024181 0.059765 -0.042719 0.114647 0.128775 0.108508 -0.036692 0.140018 -0.028061 0.024625 -0.044291 0.135437 -0.093391 0.056505 -0.005005 -0.016594 0.198854 -0.070039 0.141022 -0.012795 0.100238 -0.063904 -0.035363 -0.092184 0.002212 -0.093744 0.051378 0.039885 0.032366 -0.066217 0.085749 -0.011259 0.027043 -0.109234 0.106593 0.050858 0.022365 0.06356 0.07333 0.085962 -0.016698 -0.001829 -0.024988 -0.025484 0.083786 0.063793 0.086581 0.041818 -0.049886 0.034951 0.027744 0.013395 -0.093525 -0.032815 0.023226 -0.138293 0.013412 -0.069222 -0.044405 0.085802 -0.01011 -0.114786 5.72E-4 -0.049831 0.03811 0.043498 -0.095396 -0.148688 0.107738 0.129668 0.14034 -0.03911 -0.102561 0.122085 0.116331 0.107066 -0.043108 -0.008064 -0.022865 0.01809 -0.002419 -0.092335 -0.003028 -0.06148 -0.110592 0.012056 0.004341 -0.21896 -0.103248 -0.030915 0.023667 -0.019995 0.07554 -0.136286 0.064046 -0.018889 -0.285362 0.041062 -3.44E-4 0.026784 0.007068 0.029599 0.028784 -0.198205 -0.036326 0.035866 0.083199 0.023617 -0.007399 0.086475 -0.041288 -0.029461 -0.104108 -0.003237 -0.064646 0.170448 -0.190575 0.056878 0.082027 0.025604 -0.037659 -0.032359 0.071415 0.013819 0.054183 0.018927 -0.15492 -0.19489 -0.027398 -0.038846 -0.062525 -0.13596 0.086018 0.096642 -0.030779 0.020327 0.052333 0.065472 0.040117 0.101989 0.063917 0.033164 -0.049618 0.048228 -0.067464 0.006131 0.132016
astronomer 0.216578 -0.064173 0.096612 0.020296 0.106026 0.044395 -0.093383 -0.202573 -0.288952 -0.137788 0.155649 -0.055702 0.092941 -0.084039 -0.067689 0.04708 -0.018757 -0.127995 0.120543 0.16373 -0.078641 -0.157094 -0.051654 -0.058681 -0.09749 -0.028262 -0.206489 0.178175 0.088503 0.013876 -0.029887 0.144812 0.276789 0.045348 0.096938 -0.100327 0.077432 -0.192689 0.00724 0.21909 -0.187715 0.295525 -0.182847 0.00329 -0.024237 -0.01449 -0.216507 0.039606 0.199286 -0.107988 0.055245 0.044578 -0.192604 0.156479 0.023983 -0.175774 -0.162969 -0.160915 -0.079414 0.118142 0.200744 -0.059894 -0.09772 0.192257 -0.062478 0.015995 -0.023894 -0.078391 -0.100563 -0.142635 0.002369 0.15839 0.111692 -0.131048 -0.074404 -0.01303 0.016936 0.333819 0.210276 0.11227 -0.117083 0.156976 0.221433 0.241913 0.040297 -0.18952 0.126324 0.195945 0.166372 0.097808 -0.045434 0.0049 0.142659 0.044151 0.058671 -0.063263 -0.035665 0.138653 -0.043226 -0.045608 0.140282 0.179999 -0.214774 -0.111614 -0.175718 0.076771 -0.313859 -0.117218 0.148704 0.199636 0.172697 0.209733 0.018045 -0.196759 0.052771 -0.064503 -0.102481 -0.060394 -0.012716 0.072759 0.053848 0.162137 0.297171 0.106454 0.006153 -0.259893 0.220238 -0.08738 0.150252 -0.046269 -0.015662 0.142887 0.11453 0.143029 0.136797 0.090808 0.026739 0.055821 0.334811 -0.011705 0.147702 -0.081913 0.273295 0.135962 0.081387 0.014621 -0.030417 -0.017008 -0.262399 -0.395457 0.007814 0.089904 -0.04397 -0.414364 -0.204362 0.022127 0.349288 0.006273 0.062265 0.065723 0.050787 0.145882 0.051596 -0.098883 -0.266565 0.355374 0.503533 0.068198 0.135653 -0.083459 -0.30452 -0.209929 0.019557 -0.099101 0.01599 -0.09097 0.106 0.166961 -0.005379 0.038269 -0.234258 0.238595 -0.074537 0.157568 0.169919 -0.209554 0.05752 0.019407 0.092745 0.042921 0.199024 0.007751 -0.226196 -0.383539 0.102522 0.020897 -0.274804 0.023317 -0.087838 0.034444 0.15734 0.080063 -0.089487 -0.061535 -0.062452 -0.074588 -0.32654 0.032533 0.548763 -0.298974 0.013053 -0.006999 0.158452 -0.341986 0.180341 0.254858 0.08439 0.135163 0.018599 -0.149399 -0.071898 -0.16605 -0.230657 0.136755 -0.222682 0.144008 0.235851 -0.014879 -0.071129 -0.058297 0.006303 0.094623 0.220201 0.005434 -0.165327 -0.13252 0.033038 0.01931 0.067251 0.262495 0.143113 -0.237965 -0.045623 0.065406 -0.117656 0.09546 -0.224024 -0.107426 0.117927 0.353238 0.007467 0.058395 -0.04347 0.361087 0.205807 0.107674 0.293061 -0.365699 0.049374 -0.205744 -0.218794 -0.159749 -0.287593 -0.085439 -0.221055 0.127439 0.196877 0.079083 0.128845 -0.237822 0.099837 0.018268 -0.010211 0.015858 0.29826 -0.040253 0.288586 0.314088 0.060139 -0.010923 0.187823 -0.384983 -0.029034 -0.017271 0.015749 0.068068 -0.107875 0.280307 -0.179563 -0.264329 -0.174296 0.210562 -0.150917 -0.327309 0.047512 0.249636 -0.034346 0.262548 -0.082083 -0.058543 -0.113954 -0.002749 0.117294 0.13426 -0.206033 -0.104914 -0.084826 -0.324387 -0.193252 -0.336301 0.124874 0.257239 -0.096068 -0.065444 0.139525 -0.169863 -0.112362 -0.305668 -0.030026 0.043513 0.328856 0.065546 0.002035 -0.218381 -0.091727 -0.154462 0.129307 0.062913 0.05072 -0.109118 0.001738 0.319941 0.226431 -0.274421 0.055082 0.022803 0.196171 0.019601 -0.195325 -0.141435 -0.09029 0.112564 0.01326 -0.074474 -0.116251 0.332579 0.051301 -0.121806 0.153319 -0.053526 -0.065873 0.008787 0.054553 0.119035 -0.104944 0.276218 -0.3168 0.073451 0.079644 -0.038193 0.132945 -0.335344 0.093032 0.038965 -0.064863 -0.049921 -0.26842 -0.111671 -0.205797 0.009372 -0.178622 0.041727 -0.280186 0.016331 -0.033588 -0.085306 0.150208 0.044981 0.052348 -0.110119 -0.174095 -0.033155 0.180321 0.102774 -0.067488 0.068699 -0.248332 -0.061787 -0.084924 -0.014437 -0.103395 -0.125048 -0.211704 -0.101965 -0.141878 0.134193 -0.204066 -0.025616 -0.050286 0.058446 -0.183744 -0.224973 -0.04505 -0.054471 0.009845 -0.077051 -0.277921 0.16468 0.335554 0.005726 0.040248 -0.062344 0.232584 -0.001092 0.09905 -0.109311 -0.03526 -0.038611 -0.026893 0.198971 -7.47E-4 -0.15006 -0.215059 0.130589 -0.005707 -0.085167 -0.080285 0.180566 -0.297594 -0.102973 -6.26E-4 -0.225275 0.011486 0.157713 0.135204 0.051039 -0.073901 -0.063172 -0.050387 0.190145 0.016141 -0.08299 -0.074623 -0.081341 0.244826 -0.182553 0.133146 -0.230839 0.111815 0.246348 -0.143202 0.077018 0.183939 -0.254014 -0.056968 0.233853 0.147049 0.057207 0.278468 0.074723 0.029318 -0.060238 -0.237645 0.079661 -0.163086 -0.082492 -0.150512 0.15146 -0.069267 -0.163808 0.032168 0.243053 0.095816 0.058278 0.031541 -0.297629 0.125257 -0.013935 0.092438 0.201624 -0.114094 -0.118025 -0.219851 0.187615 -0.027605 -0.288818 0.196876 -0.095724 -0.160664 -0.173995 -0.147661 0.153838 0.012222 0.161926 -0.126391 0.094753 0.1515 -0.107868 -0.003963 -0.060725
project 0.098015 0.006246 -0.006718 -0.222148 0.037808 -0.052944 0.08297 0.092784 -0.081616 -0.1187 -0.030059 -0.030117 0.071839 0.060268 -0.01701 -0.113292 0.011387 0.111716 0.156794 0.087768 -0.122069 0.045635 0.109575 -0.092784 0.023237 0.014651 0.042901 0.067559 -0.040899 -0.198941 0.006929 -0.022891 -0.011623 -0.06969 -0.014947 -0.093029 0.038621 0.074929 -0.021854 0.231228 -0.013145 -0.008093 0.055634 -0.070849 0.149731 -0.129057 0.087969 0.003506 -0.008432 -0.00671 0.132803 -0.007371 0.095894 0.106723 0.135502 -0.017121 -0.127059 -0.144393 -0.134392 -0.04484 -0.067211 0.042802 0.070566 0.022833 -0.058841 -0.070819 0.068889 0.046585 0.012822 -0.017563 0.186099 0.161806 -0.103664 -0.052604 -0.031988 -0.076207 -0.152667 0.008793 -0.045491 0.095563 -0.137469 0.051055 -0.031231 0.114367 -0.151269 -0.03709 -0.00765 0.058625 0.063993 0.046234 -0.015838 0.091494 -0.031387 0.09364 0.094321 -0.029501 -0.047307 0.008192 0.101834 -0.010246 0.108947 0.038056 0.042652 -0.03016 0.006583 -0.13629 -0.134119 -0.014955 0.008695 0.073001 -0.089389 0.041069 -0.036385 0.056846 -0.136431 -0.020446 -0.01232 -0.039545 -0.063876 -0.029719 -0.130914 -0.156322 0.004056 0.013515 -0.07445 -0.020946 -0.17979 -0.0708 -0.014552 -0.057885 -0.085088 0.224431 0.026293 0.071838 0.004008 -0.010526 0.059402 0.026054 -0.019093 0.034506 -0.008028 0.112192 -0.014937 0.07675 -0.060013 -0.08939 -0.071497 -0.063749 0.067205 -0.012362 -0.041441 -0.068722 -0.072695 -0.062997 -0.028092 -0.017402 -0.008517 -0.052827 -0.029361 -0.043013 0.12535 -0.057196 -0.044583 0.08426 0.066424 -0.005761 -0.031548 0.092844 0.099774 -0.078025 0.003295 -0.012037 0.029945 -0.078159 -0.00234 -0.017903 0.10591 0.169132 -0.023229 0.106351 -0.056853 0.061849 -0.003728 0.103985 0.066529 -0.071852 0.05376 -0.017492 -0.055918 0.005646 -0.040343 -0.150083 -0.031608 0.054504 -0.048571 0.051364 -0.200554 -0.02091 0.040803 0.048107 0.033591 0.020902 0.016319 0.130845 -0.032023 -0.05908 0.155781 0.227833 0.07173 0.161007 -0.227419 -0.006985 -0.013524 -0.021544 0.074245 0.151916 0.146734 -0.035209 -0.064126 -0.135127 -0.152572 -0.107012 -0.008954 0.054025 -0.166576 0.100081 0.055484 -0.009363 -0.112957 0.038665 0.020477 -0.041374 0.103573 -0.119662 -0.011888 0.009459 -0.117132 -0.041595 -0.020662 -0.029613 0.015511 -0.08797 -0.026209 0.04538 -0.07419 -0.07633 0.239997 0.145511 0.05251 -0.242392 -0.087045 -0.092059 0.115182 0.029837 0.037035 0.041618 0.060811 0.010408 -0.014821 -0.187022 0.046305 -0.086154 -0.132424 -0.082911 0.049801 0.083652 0.108285 0.021515 0.021938 0.021677 -0.057096 -0.039789 -0.013444 0.036913 0.087353 -0.080054 0.086025 0.094487 -0.028856 -0.123433 -0.077698 -0.149921 -0.017585 -0.023622 0.090334 -0.11975 -0.065678 0.022946 -0.083711 0.007369 -0.073502 0.175128 -0.058847 0.03048 0.019027 -0.083584 0.060617 0.195471 -0.015056 -0.112213 0.111103 -0.08665 0.037996 0.074878 -0.014688 0.105869 -0.002003 -0.02018 0.184829 -0.109851 0.048038 0.034188 -0.050798 -0.074752 -0.067765 0.140958 -0.055095 2.28E-4 -0.103499 -0.079281 0.065724 0.012086 -0.003483 -0.028738 -0.07576 -0.070743 -0.235107 -0.046053 -0.084126 0.009285 0.120873 0.038868 0.041612 0.114395 -0.079163 -0.132732 0.014433 -0.025575 -0.126726 0.109547 -0.015078 0.062183 0.083983 0.039677 0.12339 0.162061 -0.075293 -0.235147 0.117413 -0.145043 0.049558 -0.070313 0.024225 0.043138 0.120297 0.002928 -0.083465 0.050481 0.026159 -0.030913 -0.012188 -0.039417 0.017528 0.050465 0.01244 -0.076068 -0.047283 0.053904 0.044174 0.196944 -0.038891 0.008961 0.028685 -0.037941 -0.092081 0.162068 0.119233 0.036666 0.059304 0.031945 0.004471 -0.001251 0.082221 -0.114825 -0.036611 -0.128196 -0.053275 0.153199 -0.138538 -0.108331 0.136165 -0.031558 -0.013743 0.014798 -0.028682 0.096251 -0.051097 0.069639 0.013819 -0.005676 -0.039377 -0.002149 0.012147 0.1379 -0.044483 -0.03335 -0.176121 8.45E-4 0.072391 0.062883 0.013776 0.037674 0.078613 -0.028506 -0.003586 0.001558 -0.115438 -0.269323 -0.059226 -0.106692 -0.002601 -0.082663 0.077463 0.112162 -0.067655 0.105936 -0.209331 -0.005599 0.037966 0.159612 0.061635 -0.070677 0.051364 -0.033312 -0.164555 0.091519 -0.078566 -0.05127 -0.058092 0.146456 -0.042663 -0.060763 -0.049468 -0.124105 0.076435 -0.042054 -0.080956 -0.042191 0.028189 0.074594 -0.063521 -0.038106 0.052782 -0.037846 -0.095135 8.48E-4 -0.04292 0.011487 -0.193119 -0.018269 0.014844 -0.110951 -0.074514 0.030836 0.17488 -0.139506 0.062035 0.04733 -0.011541 -0.070351 -0.019371 -0.120956 -0.085722 0.061263 0.126099 -0.183164 0.016268 -0.023195 -0.115926 -0.00819 0.161279 0.148733 -0.057541 -0.04187 -0.026933 0.063635 0.116645 0.03327 0.018789 0.148087 0.011901 0.111121 0.065062 9.0E-5 0.09992 0.025739 -0.00721 0.123125 0.05383 0.038049
dawn 0.017252 0.011794 -0.020815 0.08857 0.227947 -0.042512 -0.019452 0.094356 -0.119399 0.008403 -0.039575 0.050203 -0.050756 -0.150328 0.11575 0.032474 -0.107249 -0.275502 -0.067934 0.108155 0.195684 -0.162113 -0.139879 0.080528 0.069923 0.074126 -0.027908 -0.003517 0.082427 -0.109131 0.020534 0.146558 0.054137 -0.082258 -0.017141 -0.085017 0.036688 -0.078174 0.048038 0.004538 -0.017816 0.236693 0.166818 -0.038313 -0.140709 0.076013 0.237797 -0.039491 0.312008 -0.02548 0.167754 -0.009431 -0.352765 -0.092665 -0.064649 -0.045281 0.161985 0.152762 -0.031431 -0.107207 0.042565 0.007306 -0.010532 0.030091 0.203486 -0.018255 -0.095131 -0.146739 -0.012478 0.061707 0.033504 0.051161 -0.044222 -0.120657 0.08283 0.04936 -0.078442 0.078449 -0.087152 0.042845 0.040397 0.175478 -0.016443 0.087109 0.074224 -0.001845 0.034779 0.012575 0.118001 -0.078307 -0.094408 0.00469 0.05404 0.029071 0.02215 -0.304145 -0.124179 -0.00566 0.111805 -0.114349 -0.12127 -0.081255 -0.026628 0.0591 0.061757 0.067744 -0.114204 0.164893 -0.074802 -0.122116 -0.0312 -0.057133 0.062192 -0.001439 -0.050576 0.096729 -0.180923 0.012417 -0.0961 -0.055757 0.090526 -0.089826 0.050626 -0.182535 -0.297356 0.176909 -0.096737 0.040828 0.229938 -0.135185 0.003447 -0.00545 -0.021161 0.051635 -0.047925 -0.028405 -0.141784 0.219148 -0.059191 -0.129756 -0.092289 -0.012767 0.183797 -0.076724 -0.070973 -0.123015 0.037574 -0.072146 0.062547 -0.103661 0.065762 0.037324 0.052972 -0.299053 0.036048 0.121933 0.09701 0.158364 -0.021052 -0.129655 -0.309302 0.037884 0.038326 -0.059556 -0.027425 -0.055108 0.088621 0.034243 -0.010194 0.045677 0.128861 -0.00254 -0.056512 0.028549 0.123643 -0.078008 -0.118039 -0.031 0.103086 0.101197 -0.02191 0.083149 -0.162076 -0.059302 -0.045057 -0.133707 0.048471 0.164058 -0.169943 -0.043934 -0.125749 -0.019881 0.149593 0.023445 -0.116097 0.038808 -0.110495 0.084658 -0.002486 -0.173779 0.114239 0.090563 -0.123171 -0.07969 0.083401 0.072463 0.081997 -0.075031 0.216902 -0.045471 0.025196 -0.034315 0.194548 -0.069974 -0.007467 -0.117051 -0.059568 -0.060236 -0.027775 -0.101712 -0.11206 -9.89E-4 0.059662 -0.074374 -0.033535 -0.013843 4.29E-4 -0.031791 0.049376 0.195205 0.061052 -0.130029 -0.07862 0.045069 -0.250702 0.022743 0.031888 -0.039344 -0.245643 0.048705 -0.121378 -0.087674 0.012166 0.080595 0.023003 0.007186 -0.165616 0.096543 -0.121288 0.060913 -0.022716 0.05224 -0.032869 0.096332 0.006931 0.017099 0.072558 -0.154142 -0.017512 0.069401 4.0E-4 -0.094644 -0.065978 0.025129 -0.006418 0.179175 -0.106927 -0.253362 0.005781 0.007141 -0.072271 0.046935 0.154387 0.07152 0.039105 -0.136969 0.081657 0.016309 0.206443 -0.135321 0.053333 0.068162 -0.147927 0.184544 -0.065042 -0.150114 0.014971 0.186423 -0.069706 -0.067131 -0.220137 -0.124928 0.010565 -0.023293 0.036862 -0.075097 -0.123448 -0.203839 0.019341 -0.025596 -0.034225 0.080365 -0.032234 0.022434 0.030797 -0.186185 0.228565 -0.122149 0.049165 -0.114691 -0.164472 -0.087691 -0.046244 -0.058971 0.170711 0.073671 -0.010161 -0.028729 -0.060851 -0.017177 0.078271 0.061071 0.040146 -0.121798 -0.157548 -0.081726 -0.058241 0.015876 0.014603 -0.097376 0.044103 0.094254 0.026221 -0.041175 0.037731 0.065987 0.003683 0.05726 0.130366 -0.03258 -0.095163 0.049839 0.178853 -0.019892 -0.341101 0.029426 -0.196488 -0.074168 -0.105358 0.079442 -0.172798 -0.038268 0.110429 -0.013686 -0.188217 0.002064 0.198762 -0.063345 0.013788 0.057015 0.073654 -0.071494 -0.033422 0.058112 -0.078366 0.08827 0.071217 -0.191324 -0.123781 0.21735 -0.075268 0.097874 -0.008661 0.052523 0.173396 -0.054045 0.029056 -0.082253 0.075519 0.188873 0.025859 -0.134846 -0.251634 0.039674 -0.001723 0.036138 0.023668 -0.02273 0.009015 0.031362 -0.0153 0.036148 -0.008701 -0.043385 -0.039769 0.067297 0.109301 0.036573 -0.036771 -0.084938 0.1101 0.115435 0.14358 0.077402 0.082638 0.12876 0.085356 -0.138765 -0.038124 0.058697 -0.023662 -0.051897 -0.009424 0.009646 0.131965 -0.138248 0.049133 -0.092612 0.021418 0.111957 0.031509 -0.168558 0.149021 0.153215 -0.066957 -0.104304 0.089056 0.143148 -0.028548 -0.065413 -0.211802 0.257291 -0.112507 -0.021357 0.201633 -0.099961 0.128791 -0.077095 -0.02841 -0.009746 -0.208657 -0.103038 -0.104035 0.020169 0.058016 0.148537 -0.031919 -0.058087 0.131413 0.051943 -0.10303 0.061578 -0.192195 0.017637 -0.082904 0.081232 -0.093931 -0.056044 0.203895 -0.039157 0.084329 0.043761 0.033113 -0.12238 0.001 0.218634 -0.032721 0.231722 0.018592 0.212798 -0.213686 0.137645 -0.138231 0.093145 -0.030317 0.044917 0.06297 -9.8E-4 0.044078 0.031075 0.024019 0.032984 -0.002836 -0.020242 0.046948 -0.264699 -0.052233 0.095043 -0.054882 -0.10322 0.074728 -0.035296 0.103816 0.049823 -0.025243 -0.071519 0.073241 -0.029365 0.063031 -0.056988
ear -0.136342 0.130953 -0.079129 -0.176854 -0.058126 0.265612 0.080706 -0.096713 0.057326 0.033952 0.196693 0.367323 0.085811 0.08584 0.155969 0.464036 -0.254194 -0.024307 0.031339 0.154377 -0.321154 -0.074904 -0.063331 -0.132125 -0.066749 -0.077503 -0.003601 -0.155176 0.01753 -0.183349 -0.037505 -0.175839 -0.242217 9.95E-4 -0.100597 -0.028808 0.022553 -0.038665 -0.132718 -0.106788 -0.129311 -0.123662 -0.080832 0.165011 -0.088688 0.099323 0.062422 0.028272 0.030998 0.06573 0.008019 0.108258 -0.099631 0.014313 0.04885 -0.085956 0.021595 -0.031519 -0.066661 -0.114617 -0.079897 0.199365 -0.103049 0.126195 0.096791 -0.00705 0.071556 -0.054752 0.130856 0.032161 0.129764 -0.175147 -0.032197 0.025078 -0.039806 0.047546 0.111138 -0.076549 0.28953 0.089755 0.052932 -0.173993 -0.132561 -0.141821 0.083297 0.044412 0.04692 -0.002958 0.159299 -0.138727 -0.13797 0.106194 0.12388 -0.047512 -0.041767 0.040174 0.108727 -0.111052 -0.087367 -0.112765 -0.364032 0.031867 0.021879 -0.203519 0.148105 0.221497 -0.138228 -0.069216 0.109547 0.108063 -0.09181 0.029574 -0.172536 0.168741 0.008048 0.037747 0.050786 0.017962 0.110414 0.145059 0.036864 -0.089924 -0.035493 0.069278 0.18917 -0.147517 0.095022 -0.011709 0.066747 -0.125754 0.080707 0.17412 -0.034135 0.091321 0.062892 0.008859 0.03137 0.110668 0.045124 0.110383 0.091229 0.10548 -0.102182 0.062319 0.111976 -0.02953 0.03565 -0.168886 -0.2406 -0.250149 0.069499 0.093548 -0.084531 -0.111418 -0.106411 -0.122805 0.039974 0.095068 0.170539 0.061784 0.027629 0.157885 0.058078 0.016018 -0.030541 0.12386 0.13573 -0.023069 -0.009495 -0.16945 0.045739 -0.156381 -0.111808 0.037658 -0.020424 -0.029936 -0.313017 0.095356 -0.214107 -0.018164 -0.044635 0.069951 0.136714 0.052528 0.115364 0.152547 -0.020103 0.036992 -0.043248 0.051255 0.109606 -0.140843 0.163887 -0.149468 -0.063023 -0.051477 -0.005939 0.326195 -0.001024 -0.037219 -0.039489 -0.077614 0.073484 -0.033242 0.149516 0.202221 0.109039 -0.043633 -0.17115 -0.151114 0.016681 -0.121508 0.070789 -0.158309 0.032417 0.28115 -0.124767 -0.132999 -0.096486 0.039835 -0.128422 -0.028667 -0.136193 -0.05174 0.070174 -0.035207 0.008331 -0.112635 0.153776 0.095161 -0.004083 0.008139 -0.068319 0.036769 -0.029001 0.009939 0.081544 0.010118 0.06741 0.151156 0.157148 0.152745 0.037941 -0.058715 0.040546 0.042857 -0.120195 0.120228 0.055341 0.180334 0.019659 0.037774 0.077626 0.139341 0.149516 0.142754 -0.197866 -0.04653 0.054345 0.142735 -0.103762 0.054896 -0.034364 0.200708 -0.007921 0.283327 0.121168 0.003014 -0.009621 0.095215 0.020195 0.015838 0.028684 -0.095116 0.108724 0.14232 0.187132 0.111115 0.082611 -0.132442 -0.124778 0.029952 0.039144 0.117455 -0.092078 0.052549 0.171516 0.15645 -0.086282 -0.02618 -0.062825 -0.098605 -0.125558 -0.089255 0.006058 -0.0537 0.07619 -0.117284 0.137512 -0.073873 -0.07285 0.180941 0.033381 0.178031 0.114513 -0.087899 -0.119217 -0.013778 -0.228345 -8.93E-4 0.173505 0.034436 0.03644 0.014673 -0.184623 -0.147801 0.011003 0.151084 -0.002513 7.07E-4 -0.052107 -0.03169 0.014622 -0.03093 0.258363 -0.211426 -0.052982 -0.037724 -0.186411 0.046425 0.099129 0.221677 0.045975 0.051989 -0.04615 0.069171 -0.104606 0.225922 0.133384 -0.109301 0.006793 -0.024323 0.042396 -0.116922 0.155018 0.083497 0.02859 -0.088909 0.127847 0.145065 -0.181253 -0.037298 0.009997 0.074696 -0.038343 0.006119 0.180524 0.017133 -0.064546 -0.089868 0.036549 -0.161885 -0.021963 -0.005941 0.009739 -0.103565 -0.022864 0.04279 0.023325 -0.232704 -0.011561 -0.196364 -0.090659 -0.008893 -0.074961 -0.022465 -0.003551 -0.016292 -0.197263 0.210862 0.172656 -0.099244 0.027156 -0.184042 -0.150625 0.112927 -0.152057 0.015767 -0.00867 0.051109 0.252214 -0.065078 0.021122 -0.074148 0.021389 -0.128285 -0.056591 -0.082063 0.013195 0.102827 0.214644 -0.108044 -0.088773 -0.06385 -0.019249 0.184654 -0.093393 0.014178 -0.015308 -0.162877 -0.048661 -0.102901 -0.119422 -0.223545 -0.022989 0.019759 -0.019916 -0.010934 0.108118 0.026064 0.160742 -0.078377 -0.056966 -0.123224 -0.119549 0.0798 -0.167261 -0.0337 -0.190201 -0.140846 -4.16E-4 -0.131173 -0.081219 -0.139264 0.070848 -0.119312 0.055343 -0.137751 0.101116 0.110477 -0.07318 0.07817 0.021053 -0.021633 0.004981 0.015943 -0.011675 0.112192 -0.053615 0.078635 0.150428 -0.180673 0.034392 -0.078399 -0.041215 0.074456 -0.130007 -0.2193 0.199308 0.184159 0.132949 -0.113414 -0.00219 -0.060738 -0.028804 -0.043674 0.23237 0.166897 0.044997 -0.096331 -0.056991 0.049247 -0.039461 0.094765 -0.183787 0.029328 -0.124514 -0.142895 -0.066005 0.205381 -0.055494 -0.112529 0.077495 0.186474 -0.096138 0.163582 -0.187966 -0.124821 -0.081825 0.073503 -0.13056 -0.154924 0.026022 0.069803 -0.014196 -0.288648 -0.094212 -0.07329 -0.031381 0.060594
voyage 0.320812 0.322421 -0.034892 -0.14398 0.199784 -0.165829 9.92E-4 -0.072302 0.02503 -0.082815 0.263651 0.095856 0.070331 -0.049023 -0.033712 -0.26077 0.018898 -0.141094 -0.358435 0.289959 0.204954 0.146735 0.037867 0.258231 -0.039188 -0.134942 0.084451 0.028187 -0.163994 -0.184587 -0.096017 0.017318 -0.002704 -0.012225 -0.236416 -0.008327 0.006392 -0.019699 -0.199432 0.20899 -0.369251 -0.071101 0.161644 -0.237046 0.091521 -0.054842 0.012412 0.020517 0.200967 -0.129085 0.222012 0.107022 -0.0038 0.090116 -0.110374 -0.212321 -0.136501 0.033494 -0.098799 0.05495 0.332081 -0.006308 0.036058 0.102833 -0.047506 -0.028392 -0.25747 0.149509 -0.13942 -0.158002 -0.139 0.257004 -0.098414 0.00141 -0.23512 -0.166851 0.110303 0.179531 -0.028571 0.122548 0.088543 -0.123601 -0.144637 0.03558 0.128328 -0.121114 0.131604 0.144823 0.013924 -0.173906 0.057639 0.016134 0.113435 0.030584 -0.292039 -0.143218 -0.088716 0.206317 0.01657 -0.075306 0.058222 0.104303 -0.073042 -0.086944 -0.151731 -0.078599 0.006446 -0.019633 -0.172121 0.135535 0.221105 -0.192859 0.289157 0.303947 -0.133512 0.129387 -0.00222 0.224393 -0.179446 0.018286 0.295383 0.146579 0.07052 -0.248783 -0.261879 -0.00875 -0.12928 0.082245 0.13732 -0.071056 -0.067235 -0.11529 0.07683 0.192143 -0.140966 -0.076683 0.126973 0.186836 0.027703 -0.175532 0.025091 -0.197512 -0.003463 0.091172 0.003668 -0.083862 0.033761 -0.212855 -0.096615 -0.080066 -0.102916 -0.012492 0.190151 -0.090581 -0.046114 -0.268294 -0.041523 0.038053 -0.010978 0.075719 -0.00819 0.206592 0.02275 -0.117612 -0.199461 -0.12307 0.047819 0.283626 -0.117639 -0.007474 -0.002503 0.029602 -0.047671 0.043405 0.17224 -0.143608 -0.110836 0.117101 0.076652 0.087557 -0.061623 0.217483 0.11176 0.037767 -0.022941 -0.232913 -0.098274 0.030694 -0.008437 -0.082702 0.172178 -0.165362 -0.292521 -0.008155 0.190554 0.063459 -0.086736 -0.178709 -0.159668 -0.075334 0.197175 0.24138 -0.19938 -0.054866 0.074803 0.023199 -0.015032 0.048524 0.095775 0.122532 -0.118509 0.080033 0.082633 0.088137 0.076181 0.082544 0.004076 -4.49E-4 -0.03085 0.035142 -0.283129 0.044652 -0.036422 -0.048828 -6.82E-4 0.034808 0.228923 -0.21232 -0.037859 -0.033574 -0.06157 -0.071906 -0.003185 0.078202 -0.008741 0.008112 -0.101063 -0.019134 -0.133564 0.180308 -0.193977 -0.187979 -0.074264 0.07076 -0.078228 0.004913 0.068101 0.093608 -0.037347 -0.143496 -0.072103 -0.100785 0.067209 0.149419 0.139183 0.094014 0.203689 -0.152204 -0.017299 0.069501 -0.049509 -0.189444 -0.20504 0.024103 -0.041205 0.060922 0.08762 -0.051246 0.21129 0.018481 0.004521 0.10853 -0.006418 -0.093555 0.019313 0.044325 0.220277 0.119821 0.009201 -0.073913 0.047987 0.126215 -0.122122 -0.052612 0.295414 -0.274398 0.087465 -0.020468 0.083939 0.119327 -0.070477 0.03726 0.056217 -0.006938 -0.106797 -0.090336 0.007318 -0.045675 0.070234 0.03248 0.081787 -0.13877 0.033903 0.212684 0.103246 -0.089934 0.026804 0.10472 -0.037064 -0.052783 0.063431 0.102235 0.123976 0.242423 -0.133564 -0.036999 -0.193543 -0.166263 0.014214 0.017866 -0.0089 -0.097062 0.026357 -0.042727 -0.090625 -0.031503 0.088631 -0.031933 -0.231531 -0.058451 0.201044 0.211753 0.128936 0.043347 0.400502 -0.183143 0.177157 0.096752 -0.088258 0.192761 0.025604 -0.160137 -0.138774 -0.154931 0.129148 0.232596 0.058546 0.14786 0.113093 -0.295488 0.063025 -0.188308 -0.136145 -0.332992 0.180791 -0.093669 -0.002408 0.086643 0.22338 0.118563 -0.067973 -0.060897 0.020187 0.165561 0.006901 -0.06345 -0.018123 -0.073077 -0.146161 0.062883 0.077837 -0.043115 0.07892 0.247568 -0.023558 0.033279 -0.068707 -0.141687 0.109842 0.352119 0.239144 -0.035389 0.041722 0.055521 0.059171 0.013188 -0.01705 0.288429 -0.152495 0.096664 -0.210632 -0.071168 0.055904 0.01019 0.019524 0.034989 -0.081965 -0.098375 0.363912 0.145071 0.045505 0.059286 -0.076097 0.091865 -0.147714 -0.058169 -0.305388 0.055193 0.050192 0.252683 0.334787 -0.086306 0.111004 0.249732 0.161439 0.140601 -0.069598 -0.058791 -0.126374 0.141029 -0.076512 -0.177746 0.256252 0.282365 0.037343 -0.003686 -0.15465 0.187943 -0.22118 -0.21392 -0.0888 -0.004495 -0.219129 -0.022776 0.133228 0.123753 -0.087881 0.100924 -0.042713 0.031536 0.013412 -0.050698 -0.1281 -0.153788 0.126637 -0.179977 -0.303634 -0.011489 0.116839 -0.057126 -0.332091 -0.05868 0.014085 -0.126817 -0.134231 0.072589 0.047643 0.090545 -0.02221 -0.012261 0.104143 0.058588 -0.021173 -0.133453 -0.1377 -0.209646 0.064434 -0.107478 -0.086135 0.114763 0.019063 -0.104222 -0.038173 0.21929 -0.316514 -0.119806 0.115744 0.135024 -0.053244 -0.133319 -0.080084 0.162124 0.016179 0.063816 -0.186531 -0.118079 0.222733 0.191841 0.054047 0.069151 -0.150289 -0.139259 -0.151824 -0.125065 -0.098959 0.009962 0.259177 -0.00844 -0.040591 -0.182186
valor 0.286539 -0.139076 -0.025728 0.037546 0.040363 -0.333479 -0.168706 0.08282 -0.218502 0.242259 0.16734 0.180699 -0.201228 -0.075421 -0.272324 -0.14778 0.082819 -0.474899 -0.113652 0.022836 -0.215609 -0.242975 -0.074118 -0.101244 0.215955 0.131027 -0.314724 -0.130056 0.121111 -0.204975 0.136565 0.2266 0.142723 -0.200031 -0.081588 0.282446 -0.139168 -0.240414 -0.225666 -0.064813 0.137295 -0.06577 -0.095796 -0.198405 -0.260145 -0.100278 0.197937 0.061345 0.140155 0.079412 0.211783 -0.019031 0.061308 -0.143569 -0.162418 -0.249779 -0.352481 -0.107159 -0.091999 0.411193 -0.040417 0.087199 -0.269237 -0.061742 -0.109993 -0.002556 0.066103 0.189335 -0.145201 -0.073645 0.132991 -0.249488 -0.204304 -0.093699 0.041396 -0.169973 -0.080801 -0.011579 0.355198 0.154019 0.167648 0.148267 0.096185 0.018812 -0.279683 0.147149 0.028962 -0.070725 -0.266054 0.010028 0.064874 -0.091656 0.172514 0.191441 -0.172228 -0.198698 -0.084328 0.263253 -0.099038 0.023054 -0.140185 0.078261 -0.248496 -0.428046 -0.271751 0.059463 0.349765 -0.173525 -0.084446 -0.415026 -0.127964 -0.186951 0.014669 0.018661 -0.20804 -0.159727 0.069579 0.223395 0.180983 -0.061163 -0.239091 0.247999 0.131215 0.013077 -0.029439 -0.034854 0.290772 0.147435 0.11214 0.016058 -0.061454 0.291895 0.040003 -0.076188 0.365677 0.279544 0.17545 -0.016707 0.027422 -0.049221 -0.165572 0.053178 0.129276 -0.02371 -0.264493 -0.223888 -0.002746 -0.161045 0.035878 0.003912 -0.063853 0.004134 0.019859 -0.116819 -0.28084 -0.260792 0.15791 0.229554 -0.258341 0.185577 0.080989 0.127667 0.360956 -0.058738 0.006066 -0.06984 0.110159 -0.074267 0.117862 0.138565 -0.006708 0.066853 -0.156329 -0.034259 0.233165 0.240579 -0.084589 -0.150914 -0.093333 -0.071604 -0.104556 0.092925 -0.115109 -0.041032 -0.091309 -0.242752 0.071055 0.221283 0.115527 0.282185 0.291087 -0.013878 0.163172 0.08791 0.107345 -0.232601 -0.047089 0.330643 -0.036052 -0.105025 -0.080149 0.279872 0.222837 -0.025034 -0.118909 0.060052 -0.2647 -0.024078 0.125883 3.64E-4 0.116679 0.043377 -0.066155 0.082366 -0.175155 -0.075937 0.135539 -0.099225 0.1983 0.085897 -0.036534 0.088288 0.089814 0.241975 0.159321 -0.320223 0.008231 -0.232648 -0.204422 0.108538 0.078877 4.51E-4 0.004107 0.139275 0.099454 -0.280027 0.273636 0.128199 0.048861 0.200078 0.265635 -0.452053 0.033733 0.069126 0.254722 -0.253081 -0.124375 -0.228069 -0.006773 -0.103138 0.305648 -0.049399 0.210463 0.03319 0.278877 -0.081591 -0.063621 0.132185 0.108102 -0.189565 -0.12927 0.183761 0.006087 0.186715 -0.227517 0.258386 -0.539308 -0.031205 -0.064915 0.26742 -0.130882 -0.137302 0.09826 -0.133493 0.121078 0.012359 0.055262 -0.069555 -0.054219 0.084252 -0.205503 -0.013941 -0.105588 -0.319694 0.040782 -0.012479 -0.239009 -0.257693 -0.162814 -0.138652 0.201069 -0.054429 0.025664 -0.127104 0.089051 0.065085 -0.130039 -0.094461 -0.012507 -0.183504 0.099098 -0.030718 -0.100341 -0.007326 0.222591 -0.334747 -0.103742 -0.215774 0.016884 0.285144 -0.08825 0.15395 0.058586 0.035049 0.088246 0.056304 -0.123377 -0.272914 -0.133038 -0.196087 0.132444 0.037142 0.080559 -0.019874 0.202086 -0.039056 0.102109 -0.199948 0.241839 -0.019641 -0.507432 0.220179 -0.126101 0.286214 0.002213 -0.00686 0.117494 -0.018898 -0.040455 0.18476 -0.164163 0.048643 -0.099287 0.049613 -0.034232 0.258742 -0.158431 0.010303 -0.215762 0.134826 -0.133297 0.027789 0.183578 0.098001 -0.040956 0.045472 -0.004408 0.186008 -0.284844 -0.172477 -0.014698 -0.008209 -0.016281 -0.081468 0.188102 -0.049298 -0.079027 0.040305 0.200455 -0.142471 0.027017 0.019767 0.300224 0.252762 -0.076193 -0.290747 -0.199171 0.011093 0.028695 -0.026112 0.457096 0.1083 -0.083467 0.110961 -0.157144 0.270841 0.052823 -0.169873 0.054288 0.031002 -0.050176 0.122518 0.049748 -0.089377 -0.204849 0.028614 -0.375365 -0.008347 0.02167 -0.016558 -0.03764 0.108818 0.084324 -0.194754 0.08232 0.220276 -0.021681 0.360626 -0.253476 0.146845 0.042238 -0.254854 -0.029258 0.112091 0.304665 0.261873 -0.147848 -0.21369 -0.341088 0.0635 0.088817 0.052647 0.209462 0.107406 -0.133477 0.078536 0.237749 0.018447 -0.075115 -0.198887 -0.158722 -0.109243 0.084235 0.215939 0.084525 -0.199579 0.148528 0.235771 -0.041219 -0.204548 -0.262419 -0.155312 -0.210248 4.7E-5 -0.238498 0.025853 0.183239 0.232847 0.107794 -0.150031 -0.065707 0.297437 -0.03893 -0.060135 -0.428798 -0.074137 0.051113 -0.053085 -0.178805 0.107745 0.273024 -0.190013 0.03984 -0.280743 0.168967 -0.16864 -0.228616 -0.283733 -0.163879 -0.183773 0.346227 0.163562 0.219115 -0.076722 -0.06565 0.117937 0.108502 -0.067315 0.013755 -0.110736 0.039434 0.040572 0.1377 0.172277 -0.04134 -0.109004 -0.107553 -0.088373 -0.205578 0.166917 0.071332 -0.15178 -0.239473 0.035283 0.313687 0.328098 0.146993 -0.020262 0.222426 0.061619
butter 0.253121 0.242662 0.283508 0.006836 0.108397 -0.037204 -0.188565 0.035296 0.010891 -0.011349 -0.014182 0.093647 0.016781 -0.216496 -0.180191 0.353589 -0.254549 0.309851 -0.172662 0.064302 -0.142199 -0.022871 0.119089 -0.391973 -0.206769 -0.09816 -0.359313 0.10692 -0.387414 0.091484 -0.214768 -0.210788 0.027971 -0.297307 0.197721 0.050333 -0.029472 -0.153217 -0.025157 -0.17286 0.078772 0.120556 -0.214785 0.042624 -0.195038 0.069527 -0.034194 -0.098425 -0.208093 -0.196782 -0.015555 0.206539 0.097969 -0.093148 0.095265 0.046924 -0.069686 -0.046578 -0.121644 -0.333932 -0.224906 0.417262 0.10518 -0.132816 0.299396 0.334129 -0.215447 -0.332946 0.061834 -0.158862 -0.077039 -0.006889 -0.24643 -0.169208 0.068 -0.156783 -0.383698 0.029231 -0.240213 -0.235355 0.023421 -0.069437 0.451437 0.210402 -0.054439 0.146382 0.204095 0.601318 -0.225317 0.011745 -0.059275 -0.040331 0.221747 -0.078401 0.113075 0.136958 0.022903 -0.37242 0.073294 -0.013173 -0.337113 -0.152375 0.17399 -0.360579 0.493611 0.212051 -0.183859 0.021711 -0.04272 -0.308539 -0.18698 -0.296339 -0.120655 0.335282 0.50594 0.03647 0.462157 0.089326 0.135561 0.162833 0.042673 -0.019022 0.166947 0.048133 0.010017 0.228808 0.227531 0.24717 0.258716 0.002223 -0.230717 0.198907 -0.095346 0.237629 -0.058146 -0.079913 -0.188436 -0.069423 0.048567 -0.016075 0.037646 0.2782 0.038631 0.159726 -0.359739 -0.028556 0.01724 -0.178327 -0.102297 0.239414 -0.24818 -0.122841 0.196939 0.030654 0.234145 -0.179359 -0.029459 0.041866 0.225252 0.407385 -0.02735 -0.135026 0.303017 -0.269673 0.261008 -0.028826 -0.210555 0.388703 0.137386 0.084111 -0.059826 0.044137 -0.367613 -0.097814 0.358027 0.147228 -0.015269 -0.316272 0.092877 -0.165344 0.157777 0.443919 0.29359 0.075891 0.171304 0.254046 0.247447 -0.105938 0.094677 0.026981 -0.066851 -0.031358 -0.210043 0.11583 -0.305203 0.116612 -0.0336 -0.239156 -0.157754 0.070372 -0.367476 -0.295574 -0.206266 -0.118075 -0.273909 0.020897 -0.153021 -0.01678 -0.135902 -0.278636 0.154418 -0.066962 0.085563 0.260169 0.095835 -0.201012 0.091703 0.147222 -0.171239 0.150052 -0.228234 -0.143273 -0.065249 0.04503 0.191839 0.149205 0.056247 0.052508 -0.00137 0.156767 0.029947 -0.476259 -0.195626 0.146812 -0.337419 -0.043926 0.037283 -0.196634 -0.118465 0.259828 -0.34841 -0.068327 -0.099567 -0.041778 0.047454 0.0556 0.09796 0.022219 0.307299 -0.022211 -0.145875 0.125215 0.117635 0.182327 0.212526 0.053762 -0.254805 -0.358191 0.095659 -0.099354 -0.170088 -0.269507 -0.206619 -0.045902 0.298186 0.261498 0.124964 -0.212796 -0.065299 -0.04164 0.085537 0.06595 0.029167 -0.288717 -0.110167 0.081584 -0.090203 0.497781 -0.294668 0.015978 -0.069868 -0.184116 -0.518896 0.047913 -0.211581 -0.403647 0.206417 0.168158 0.323622 -0.080844 -1.22E-4 0.003946 -0.330284 -0.163548 -0.002987 0.142011 0.145014 -0.069643 0.068299 -0.129146 0.077895 0.027348 -0.175233 0.240565 -0.179111 -0.027296 0.27096 0.167716 0.228017 -0.148679 -0.173749 0.122166 -0.313688 0.093182 0.08255 -0.283534 -0.095542 -0.27713 0.125457 -0.074698 0.018484 0.027373 -0.039442 -0.150107 -0.117258 0.090547 -0.088087 -0.026457 -0.049192 -0.243405 0.068761 -0.049007 0.012956 0.29224 0.161095 -0.021606 -0.018403 0.301735 -0.128532 0.048568 -0.060808 -0.003611 0.138119 -0.189294 0.103728 0.100528 0.063518 0.311882 0.021084 0.10968 0.372845 0.018688 -0.020673 -0.070135 0.029431 0.047134 -0.065943 -0.109823 -0.132187 -0.188518 0.070428 0.019378 -0.260001 -0.176945 0.298212 0.139969 0.103115 -0.003946 -0.125847 -0.020992 0.166382 -0.21958 -0.096345 0.233556 0.145279 -0.016813 0.266413 0.193244 0.138637 -0.214176 -0.296697 -0.034382 0.010858 -0.484357 0.17001 0.011645 -0.07013 0.483371 0.015077 -0.155144 -0.012127 0.306436 0.309338 0.131881 -0.374275 0.337161 0.023238 0.114812 -0.375327 0.017719 0.217438 -0.125092 0.011775 0.021443 0.179625 -0.00207 0.352552 0.36509 -0.146188 -0.020557 -0.035482 -0.073945 -0.222873 -0.138044 -0.037103 0.101714 -0.331707 0.082216 -0.030276 0.04823 0.11664 0.267276 -0.228516 -0.024416 0.048963 -0.068786 -0.096823 -0.277469 0.169758 -0.115879 -0.089886 0.130992 0.032883 -0.172683 0.032838 -0.223084 0.182657 0.034665 -0.036823 -0.111417 0.135636 -0.039978 -0.220795 0.199878 -0.027039 -0.023832 0.197159 0.073395 -0.249522 0.007719 -0.061098 0.17542 -0.038202 0.351744 -0.148949 -0.050506 -0.129081 -0.318502 0.121245 -0.2481 0.046059 0.162244 0.154976 0.074397 0.008421 0.341105 -0.341157 0.247965 0.246954 0.340715 -0.225861 0.210363 -0.063464 0.161784 -0.101323 0.271701 0.078592 0.057325 0.043711 0.150051 0.006203 -0.207041 -0.062797 0.10947 -0.111815 0.098815 -0.347323 0.002618 0.049384 0.040685 -0.033457 -0.034349 -0.31811 -0.038731 0.043774 -0.267197 0.111551 0.017466 0.097571 -0.25216
